 -0.022562389859934213 -1.0562416310683364e-08 2.1941468432725609e-09 -6.9222335907542478e-06 8.8827887094809524e-05 -0.00024273562770998921 -0.0027095730182503355 0.0014575719112502354 0.0024602636434391378 0.00071362953218916179 -0.00057007888545493042 -0.00023146498606863627 0.00051291124893620488 0.0011340287619487726 0.00036259352321672491 0.00041217382830880056 0.00013213434022648829 0.00013773034463846051 1.0759304576373831e-05 -2.1216142605335873e-06 1.1418615424880706e-09 2.2031733663626477e-08 -4.9577646843538834e-07 7.9675226055477938e-05 -0.00074061727895619988 -0.00043041930447794234 0.0021555517490685324 0.0092707631833575197 0.015070148150855809 0.0073689431007384109 0.0076631224621029771 0.00063858472310982959 -0.0086666439191382654 -0.013694672080461991 -0.001802449072484274 -0.0019855052576765236 -0.0013385487822341546 4.1179977716254054e-05 0.0036151862894170856 0.00032736751081022426 -0.00010260924419036893 -2.51764893162179e-07 1.7292613180222932e-05 0.00043030623305557666 -0.0043186673007257516 -0.024427771438039057 -0.042967774287049183 -0.023416992235448072 0.048785891636808153 0.12556121792235567 0.077785290668548085 0.039891562179020582 0.033455202660414414 -0.021630990716336014 -0.093316649195081147 -0.091492874474838323 -0.0023992060252727957 -0.025692406889362539 -0.076659968347865398 -0.0033771519715733176 0.00048785088299273802 1.1920688304766799e-06 -5.4030850136109244e-05 -0.0014305291538764082 0.012197324381919899 0.040218290302003232 0.061073204757752748 0.020042220148980439 0.090976878289828297 0.16351628947920119 0.10668240629149534 0.056029847496462178 0.067354007397542132 -0.010795178701801141 -0.10850078635137415 -0.20781214259865605 -0.044459668134780875 -0.059722948410331725 -0.15555515928012634 -0.0023415435998816732 0.0088220063976286664 1.440406519775629e-05 -0.0010991937673285293 0.0074045472387367596 0.058327618759107275 0.117347929758709 0.19463192410570188 0.021916655622524182 -0.028498992446356439 0.065110720959523985 -0.029484915311477386 -0.024762000927527734 0.081432676464396947 -0.098775588654313545 -0.14737238400799973 -0.25639388689931003 -0.27774811665697524 -0.12267177118313219 -0.07677856113826885 0.034112984362599894 0.013229327942148336 -0.00034705832331100055 0.0020876387332926533 0.044283686565971585 0.079679586753323289 0.11105192084000963 0.038086788330457776 0.052889665789800859 -0.010831719033112966 -0.071452861735223611 -0.021471863960510061 0.23738679669928914 0.26705979470486096 0.0071179214622582847 -0.33870726273510737 -0.47781852990143814 -0.26703526591935567 0.018303894515714843 0.13124356307333887 0.11509033820605695 0.018285032529252107 -0.0012743802436775609 0.010558958960442956 0.112714013142742 0.22932794153068095 0.11287150952935171 -0.0142369823838498 0.016813297131727734 0.082958567863059524 0.13085133015672842 0.075265594399974253 0.074428124846339219 0.14378312263363519 0.12525307050372028 -0.18842041371282447 -0.39125004510330252 -0.12248706412227423 -0.093521496719558242 0.018374382448572691 0.14895179646803683 0.026469968004261615 -0.0013031196566740345 0.0086945896654750492 0.16060324036408483 0.33810186674447013 0.068656760844370113 0.013366489030663604 0.038402595698993937 -0.0063421507511036562 -0.1028470117256001 -0.036473353786507491 -0.21432561139329925 -0.18896666987095917 -0.082143101676568769 -0.041502795906971125 -0.29391826617940248 -0.18654486585410635 -0.34693274364679427 -0.13582228398654592 0.2407632430251867 0.027232414459398752 -0.0017552431433427637 0.016626847392736684 0.14749864300969531 0.22948308770280765 0.018970197322010652 -0.0025370841578834158 -0.0094578328823213612 -0.088579408540448157 -0.2694337569672498 -0.047461153109158612 -0.28380369756153012 -0.16142429123321139 0.24720096718913756 0.38660426030101241 0.018193748149125607 -0.13752963781297742 -0.3845860997272017 -0.13060830417916183 0.28447101822767989 0.05587626366558119 -0.0031410902620162598 0.035007270022975476 0.06174374261149506 0.036614160068269272 -0.18915562780298278 -0.037750238563470546 0.08321822144740379 -0.14640787642324013 -0.21698533920019103 -0.38249617610033915 -0.41258232897705605 -0.030638917782416258 0.56243671196467926 0.42124333829017835 0.13659293572562151 0.061879045969637655 -0.51005923275902909 -0.21601768075995295 0.14479428512894421 0.062012960045000634 -0.0036240966895033366 0.041260446738230649 -0.036727872012511965 -0.02311639346082775 -0.15292754337395914 -0.20943096766713487 -0.029182473672603869 -0.31600635483447065 -0.38128668672746296 -0.5270605704268353 0.015231064366796682 0.3420615271931835 0.60710646245454536 0.2352197626758484 0.20605776696328448 -0.1249991829834475 -0.41993206888745427 0.023879136190105458 0.25249325586150212 0.043617898013238919 -0.0031862624210780947 0.058359310983152071 0.037364474113950233 -0.21931904938102253 -0.26232040361354536 -0.052824359255062715 -0.13029339787516384 -0.18860318992443897 0.10836270228995991 0.24171671120405808 0.46719716829669272 0.62567958281286296 0.24854433953478433 0.14355982521029356 0.33855721022366153 -0.12459535832255755 -0.29781211881204989 0.052113697566167086 0.2144333121554956 0.021471765289147744 -0.0050080505318579795 0.062496481662592022 0.12359296765185074 -0.089558456393521391 -0.22503396644730983 -0.033012747065892037 -0.23636564701154944 -0.011433665309862048 0.3155486373632746 0.37854104907229164 0.26581976414546477 0.40346655949201826 0.092674243798104974 0.035694372292411347 -0.017716977632922314 -0.19176603555706259 -0.35763456291081885 0.027995217952414303 0.16242270940483972 0.033806609886905925 -0.0036444744332575414 0.044355953776566218 0.1484094508811655 -0.064223544256601914 -0.29191418319924839 -0.30076791633812244 -0.24608819145047078 0.077308150484005717 0.13158935481820641 0.23964873605588191 0.21034874401608203 0.2309792809894439 0.17968790969877391 -0.13858384435546486 -0.1058491421439553 -0.15825793534938101 -0.33325751355707106 -0.10024600996628018 0.11082316396020744 0.025225995426268077 -0.00056363690385980521 0.021704904829350141 0.18333344595430603 0.031033555039087741 -0.24140533153619592 -0.15807803556834957 0.019943608585198731 0.17052570727284558 0.45881398992284078 0.37754152991574508 0.38075926549450234 0.15305342382582382 0.097353039465619046 -0.067540073100544912 0.01578454741890337 -0.056363795566389804 -0.18962039439526893 -0.026246088713144298 0.045885156293597185 -0.004640335178721226 -0.00090361463592265943 0.010335710956282142 0.12121799273704133 -0.012938580395312704 -0.37315226684779879 -0.26699209654635803 -0.26455689035106589 -0.075698802077184033 0.35027671364790025 0.32408672260783988 0.31657932228978403 0.10959926618406363 -0.15187282928558682 -0.10052854778892063 -0.041419714963997135 -0.043268825627757565 -0.037854117634724543 0.030319804468223636 0.080819788703880249 0.081115017183662638 -0.00042135214159795228 0.0047278341009832055 0.025902984015562777 -0.074824190485912531 -0.30012382760583728 -0.43247728948945946 -0.3735658989509964 -0.26857958084594391 -0.092492391743929162 -0.046644115641172913 -0.039711357903291396 0.035541698248568551 0.099101750424238522 0.084460613347862826 0.024397887118383223 -0.0482566575481157 -0.035374601796228658 0.012564222945758669 0.025793466987434063 0.028540446026825983 -0.00011879508357908176 0.0028575391918050181 -0.01711363011031947 -0.051937784772021635 -0.16493966575928412 -0.28154097542041279 -0.38764552012071968 -0.24382050339679212 -0.077967507214992404 -0.01941574698672225 -0.075235715113692911 -0.067879786458739114 0.11787825344272881 0.18681849128903738 0.0026625554331978019 -0.047259106388136407 0.012512744899862276 0.01813660770538314 0.0066011015193620419 -0.0026759499430292293 6.0511503100400978e-06 0.00050082615340826234 -0.0055859128989557217 -0.011566976509681305 -0.057433219194917375 -0.1245353182795431 -0.14219642950959149 -0.12366229742107752 -0.042465152643570828 0.011790200983296285 0.024984703740314279 0.051020747002240588 0.075660769951221091 0.040791233224156113 0.0014322783184473322 -0.031057955800397653 -0.0065469025216188014 0.00017570082994227662 -0.00059812096664482218 -7.6070316392447515e-05 -6.878645361130502e-09 -5.173469463385951e-05 0.00043960270395121067 0.0031558965363219747 -0.021809680683071951 -0.026607440039620796 -0.013881262114720704 -0.0049565559946867345 -0.012470226385272282 0.00035674364087262187 0.00053133673662170036 0.0046986347142581215 0.0022161083360646731 -0.0094708143515526613 -0.00098457948090695615 0.0020475667400139596 0.00062806078791300996 -1.3052992869071777e-05 -5.0417510051801535e-06 2.8046444894996847e-09
 -0.098381129385231858 7.6616868208573844e-09 -9.7587368851163643e-09 1.0474442369164781e-06 -6.1410395440091586e-06 -3.1082408574909018e-05 -0.00051242646900606257 -0.0010150461516529607 -0.0010079906965906084 0.00013919218473446777 0.0026372113709533097 0.00082539575819568411 -0.00045965564184384424 -0.00068066917853258136 0.00083388675749439245 -2.7838409064674749e-05 -0.00020873919492730826 -2.5791212046996492e-05 1.1752839812395846e-06 2.1680602330251262e-07 -1.0375921642993319e-08 1.338341422897636e-08 1.6785414656111972e-06 -2.7877784286996466e-05 0.00016398944257336572 -0.0015058985606631989 -0.0030152596990960772 -0.014179528270139907 -0.0493818797275931 -0.022416618085179574 -0.022444269228880053 -0.0033726874285809976 0.0077188259619280991 0.0080385141331179803 -0.01612429531888266 -0.0053455703524222815 -0.00095512683050694776 -0.0041525724402759435 -0.0061820692887470021 -0.00099315957467030133 -0.00010881489215161752 -3.500463866209436e-08 -2.9168120022213121e-05 -0.00012834846771266899 0.0017807779774074517 0.046053152493254895 0.11688960090417014 0.02330920979665542 -0.11622678248417723 -0.20971867863664739 -0.10200417000694455 -0.014578226655316644 -0.02686215512245118 0.05033929218869207 0.20574884248666037 0.22801949515055106 0.047195179929214771 0.04157254604151582 0.094066026014796467 0.0057140587864245021 0.0022304270278690223 -2.0293583661295653e-07 -3.4561372834795972e-05 0.00045032916463047317 -0.002536662197647466 0.058659094715033375 0.056486464157596214 0.10048872067202827 -0.10968448487842516 -0.2586451246084403 -0.2150058815984433 -0.13704698928614695 -0.1001064539833228 -0.084019588627509328 0.15608579763027514 0.18784127367380735 0.12368700953077046 0.19100072247348523 0.33817802686404536 0.0601077376198101 -0.00057792066775905107 -4.3414136869537046e-07 -0.00019524613475683307 0.0016087376698256588 0.012583703085686125 0.034619647884013817 -0.030196156993075502 0.044129977505599147 0.0023442041160393959 -0.1098486341623643 -0.20926666948428543 -0.2842307699310756 -0.46743252808007096 -0.63552869007694546 -0.078824405868769987 0.10775976413770555 -0.0054680462039137885 0.067482600793898478 0.40131782862903381 0.13542238302519152 -0.00070642056052407955 6.9645775276674235e-07 -0.00067200362012229814 -0.0045177812043685379 0.054084767780516338 -0.0089853029037597343 -0.17700358235632077 -0.16177856429640838 -0.094303482797163052 -0.06761837088901336 0.19277153314853049 -0.34645187349309287 -0.81071239370368242 -1.0403953553181111 -0.16464900403042654 0.37461060234466864 -0.071208911656446619 0.10241912613650531 0.4605118358942788 0.13064784413212915 -0.0086850042353484296 4.9737156861891303e-05 0.0024643863136583487 -0.027384799510786918 -0.10070377295809425 0.14757331128476281 0.043891061824496834 -0.095554278919346827 -0.13570859864351129 -0.2019759097300653 0.18143098001722763 0.20778768604542353 -0.28598786921567382 -1.463369318005054 -1.0116399822242605 0.0082419816867764298 0.11638755915840775 0.17525914494088715 0.41404870326046544 0.12202228661595316 -0.016254729397075736 -0.00036900801219791915 -0.0068974019599228895 -0.090748635039834505 -0.097341624926319967 0.33946544028552456 -0.032160815229077232 -0.22348095914340282 -0.24819182280763993 0.10837568252237113 0.24378441703675152 0.44906124253258145 0.35404992039277366 -1.3039052813147463 -1.252418378838122 -0.11660838769333727 0.39409773909582835 0.06891561506691482 0.20789078279717563 0.16829339992716244 -0.063021985758130727 -0.00092248320678315569 -0.018582769812053587 -0.036239128729370802 -0.02634363988160468 0.22204101578785332 0.11065759023018015 0.0097790853264949108 -0.10737972769716492 0.23922571838906878 0.30895988937250651 0.099203538554941018 0.34824229127184131 -0.73913158982521732 -1.2089175903863365 -0.39698771389419407 0.24815194989791772 0.015626382807002355 0.11974082966084514 0.051033627899063953 -0.075708498774116451 0.0019629503590660722 -0.027957067841085103 0.033400578578358611 0.042241947965444927 0.0032030441475671459 0.19186641540880875 0.14852674347833636 -0.21964186179436748 0.1679916772008023 0.3676980952921764 0.17557283003211574 0.28484129453487833 -0.69911895684740566 -0.92572551330944908 -0.17484053078713496 -0.077469013198987469 -0.032540821398894797 0.12768107622377925 0.12397305520226656 -0.066446659401594513 0.0029953366803047417 -0.046294668030703312 -0.062771770321622081 -0.013714307009791501 -0.12322382671460291 0.36824739311532156 0.051659301851388423 0.0098857015813685681 0.19293785568357882 -0.027225949021265711 -0.12102076323440596 0.13568486203725794 -0.36027756683114137 -0.2157317171913774 0.26132973435526263 0.16107334748952404 0.12404508667245613 -0.17045609028643469 0.046894850618296298 0.016970207414704511 0.0010390467301023647 -0.024721412421812368 -0.062769486055711934 -0.00053147817534990836 0.0094788868193152204 0.24018089418856445 -0.048608755001906916 -0.26083100272261145 -0.017076884638548784 -0.017381441210080631 0.050323379475352779 0.19243941395391106 -0.068794709066384671 -0.23878114966919201 0.14341070034472431 -0.11162102696419399 -0.052140061116192293 -0.10278762652342685 0.0065950689812090792 0.012097658642774218 0.0013186694300325605 -0.015063373114123816 0.078284209522653789 -0.13746249204766553 -0.16585146596597539 0.17220065717793445 -0.17475240491878891 -0.31034906018027814 0.31303415234790377 0.57801087872530632 -0.094916948372271631 -0.13410683767826811 -0.13913216305267609 -0.19293673957212665 0.040818682663971019 -0.19005145930446887 -0.049144578262607215 -0.014841350593073083 -0.051226701612617505 -0.0037394259633027945 0.00019640275121423647 -0.001738205734123627 0.052428135634726446 -0.0017838551377944672 0.13908901416925573 0.017015387288813463 -0.21002182562427207 -0.14563126709556079 -0.2082020529981663 0.34636639995052915 0.1268865291335074 -0.14613229077000989 0.11522537227078537 0.12432694573917324 0.027761452917824579 0.0075864506789791401 -0.15899825757812727 -0.10656103946066035 -0.041492652716259806 0.026261152933803312 0.00013456981576499859 0.0010282476026705005 0.013966690321059176 -0.092414797794084569 -0.07219100721528604 0.075484362105394456 -0.041640297472410007 -0.40509936002470398 -0.49174500866389387 0.11155199399288412 0.4013621601008176 -0.092884480755671489 1.4982434700327139e-06 0.33714424242749402 0.19805545432053748 0.0079542567304704305 -0.1346769425271169 -0.071386104762039881 -0.0078169307411983732 0.0010480047122248478 0.00055355056475802993 -0.0043480116808937977 0.0096351778816283467 -0.086693835377490397 -0.13305785793443506 0.029513810776620335 0.08357390027938498 -0.24388758798106869 -0.40444053685111292 -0.21049507143477922 0.082571126744591924 0.092660628021837776 0.20612017958905493 0.14668443896957833 -0.083114911191227686 -0.16090583517906296 -0.1939704048992841 0.024957392119185344 -0.0090962380735817236 -0.085642060482961038 0.00016105683685463238 -0.0018791366860758392 0.036700051017423067 0.038800805195849719 -0.0050499284358214349 -0.006772530438411712 -0.23151474763621829 -0.37879290855306036 -0.2808412474062551 -0.27400287598776407 -0.22995588884337495 -0.10248082411111339 0.0071401212713212581 -0.17626609881585797 -0.15471771420817992 -0.069741808913574732 -0.051856397014569941 0.077103281878216981 0.06319271817722974 -0.020688954786057017 -2.0035094855406455e-05 0.0003343987896645137 0.037119911242245132 -0.0062584036194947325 0.023344159925653262 0.13933547559628398 0.096493761398792718 0.031950327691315922 -0.0034944756355280377 -0.048439087437862287 -0.10400622911608422 -0.11149604418046931 -0.11575256107206337 -0.16736479716228386 -0.082133768248911498 -0.071848476048211665 -0.012064876194400005 -0.00062681391187451962 0.012828979749422299 0.0023305519083286481 1.5966237022981154e-08 -7.0397519295545689e-05 -0.0023028196425094426 0.018875926837673602 0.039549236792872505 0.094789319605845121 0.16868538822681356 0.16755034980349734 0.091875926980096542 0.001557236405424418 -0.028261944480187994 -0.020817933923881229 -0.014000250695145693 0.013890608945347707 -0.0011041074359457038 -0.020256511259644956 -0.0038487991523742755 -5.7269006943046978e-05 -0.001247676697462441 -8.7286000578622044e-06 1.5024152318363702e-09 6.0295422879145476e-06 -7.0419287038751821e-05 0.00080816314119308552 -0.015045401212729091 -0.0086595588657505038 0.008106663591760925 0.0066727768749131498 0.0083525831987385692 -0.003324156590860286 0.0039580124680862958 -0.0035665785494219246 -0.01281804234604895 0.0011680378625293852 0.00060646230500538021 0.0022285164695830932 0.00039854509848863488 -5.6013400710845778e-05 2.0094096878506898e-07 3.5442285438789605e-09
 0.11615605239967354 -8.7765446619885745e-09 8.1603776428959913e-09 -1.4774415551061247e-06 2.166866701974584e-05 -7.5811403385482281e-05 -0.00077605582654453702 -0.00098714635506139473 0.00031358743235682346 0.00041651967131514026 0.0010377857962094673 0.00010167267082780513 0.0022191344928225816 0.0063795002465649323 -0.0052744605063531061 -0.012024010333901694 -0.00037685560908496237 9.8849875651814149e-05 -2.3837022062038244e-06 -2.6164459713085922e-08 9.1640546312585327e-09 -5.7223895595458983e-09 -5.0770968342877483e-06 -0.00015306773148645239 0.0016959921908092023 0.0065794479247232958 0.015796195954273617 -0.0076793576387226732 -0.022232545491406609 -0.0066160311650070216 -0.0032110585518210859 0.0023664253295729723 -0.023596598476895984 -0.064644675973813709 0.067955997402976476 0.13801117783222586 0.0039516886427128448 0.0026775780077704699 0.0055411151646403778 0.0007194320742914662 -7.1197281596043185e-05 -1.6495917820295203e-07 4.8618469075100561e-05 0.0034657195541937615 -0.030860613264675912 -0.14342989574624132 -0.18212466328913468 -0.12760891574074065 -0.12519450902363427 -0.091279646127188266 -0.049184892445512482 0.0052940294931888288 -0.030480840131188101 -0.19983216064175055 -0.13190653866960314 0.064987497554982454 -0.029147264880887817 -0.046696471767609382 -0.09882400835042314 -0.00089749682978586156 0.00037634405452020001 1.66702478938699e-06 0.00019832672365486392 0.0062366570997585673 -0.077713752604828698 -0.19085801052583079 -0.13846511501227624 -0.045511980413068323 -0.013759983830893878 0.11785202111705834 0.04159206348393419 0.081004291952325391 0.0030904611505986179 -0.2135159366328935 -0.2523095144722789 -0.12975024652350967 0.10700222033449742 -0.183144258914021 -0.26810697072398243 -0.059848734432473905 0.0039328341611259863 1.7073696635986853e-05 -0.00028899067308357264 0.0057870843855627142 -0.020831671497665735 -0.24870612472058476 -0.19977925596161114 -0.18034430436102569 -0.064779170410160722 0.28165027124322117 0.16636498200588762 0.23419113879638495 0.22189743770465462 0.40554425272105799 0.39750146648032153 -0.022310775502482883 0.2607755495942366 0.026092704170471031 -0.40819357136309969 -0.15853939285127333 0.010711648709609917 -0.00012820054016023159 -0.00091426999568418137 0.035212114886667617 -0.099949491119159392 -0.33159585078255871 -0.11836072013855962 -0.21231805204643428 -0.049664645182227185 0.063663836770849774 0.0091331766327966898 0.37826203475705733 0.34772763498284076 0.26759754015205495 0.51055982816415579 0.017322754366989164 0.0068032952874193305 0.14933543843183103 -0.44720459697453396 -0.31100586073110176 0.0078479848411466113 -0.00047512899596756505 -0.0040772205429301959 0.091647319483685111 0.02965796208969778 -0.102836635587456 0.096884781664767577 0.077632998756766936 0.22117678401774454 -0.24442851731914825 -0.21201466518505863 0.17971648929737266 0.36476592004224245 0.071953466589762427 0.48184738568008084 0.47939189196627624 0.1067807942955185 -0.030577181282732898 -0.08468802422106167 -0.32099207365525262 -0.0040211356905574761 -0.00022013399628815171 -0.0011011567130929918 0.14060344048006698 0.10178791197944635 -0.16022354542254455 -0.11226621776393302 -0.026524589266259752 0.35137156315916229 -0.20188392728515317 0.043287461908094717 0.29257630680977087 0.43071217915630833 0.69427289622496813 0.68324275684979063 0.57828746220233262 0.3143588690198848 0.1617088499230537 0.056554204193024413 -0.38547510439500809 -0.020587042316809565 -0.0021769413649918609 0.03050280560922004 0.055593849285953852 -0.033896532369630805 0.0056573601897698302 0.24898704220346093 0.18891518948191 0.20512284557677679 0.17103654266910337 0.2652278057459051 0.09318106742648806 0.46023930172161048 0.75504397454895822 0.59135477888628818 0.4278333839438353 0.30227464025017187 0.40675925948739511 0.32977768410904384 -0.23998137246981763 -0.018203425540683771 -0.0048035182466730671 0.048822518073838292 -0.15405221793817087 -0.12491411536323711 0.051955428004629899 0.24693638242139013 0.071705097388483199 0.39820927238385556 0.081390103883480724 -0.24601140868475957 -0.35572693355662455 -0.090004508018277904 0.11050211731551517 -0.013539266455518936 0.071149195710550242 0.43811848823618776 0.24688152033974273 0.32559625528297992 -0.095309746250194047 -0.026311620667624502 0.00054547435772876274 0.025385460170681048 -0.15261725443995017 -0.017444523491709524 0.40019829529500367 -0.038827091445858143 -0.11570043450161922 -0.16638067244325208 -0.61444081174359333 -0.72481454650242438 -0.53807187877855334 -0.15724995687806653 -0.088154189415783415 -0.0094676945297779199 0.018326454515165576 0.038849830462244668 -0.19831030316698564 0.18806169559449507 -0.12937273151862067 -0.026746109476011058 0.016515532013444769 0.070835803053759333 -0.081915086697337852 -0.11791088207279533 0.15417502744938374 -0.12869249840798877 -0.54340731130966269 -0.93107737684173164 -0.53786497301503378 -0.73760314854095954 -0.34490996575296751 -0.15543203356152102 0.031241996341180411 0.076955567211768605 -0.033395441595917424 -0.16969674526400913 -0.19329610257868943 0.15124857744220011 -0.069173708105850162 -0.023976639668837126 0.0023336472071693098 0.04072596453789587 -0.031058067571354056 0.47795287622522697 0.39663894812103195 -0.12319458655387464 -0.24700418969254656 -0.51808530567706479 -0.64159946016408198 -0.59964503127364699 -0.20496067106569363 -0.11117849195593639 0.20827415358745935 0.19978481622310729 0.082442800229403215 -0.063384253492789089 0.14056643443048539 0.21224370439484844 -0.068262577762977714 -0.049916451360127456 -0.00087190878498826321 0.0072747655455367762 -0.11413146757878775 -0.058444335260634916 0.070835008315229167 -0.35947833461633372 0.051578966761169777 -0.094748689177353934 -0.55285638791685399 -0.2541538040149241 -0.04702424078927351 0.080770712168230147 -0.30701057057819864 -0.18129526036262358 -0.16887168088818491 0.25890793975625942 0.21511352014660209 -0.0039395167779425391 -0.096969213727164327 -0.10010512989135513 -0.00032475915202605482 -0.0070526472057815927 0.039839977088790619 0.22645126421201836 0.13628810998150717 -0.052643964473187047 -0.1891596923926315 -0.12733458102668702 -0.30006454272896227 -0.10463538337519794 -0.057254746206777722 0.2681236415530433 0.25797889904529392 -0.083072695004205679 0.049122844450683878 0.22433867739116817 0.023161648654147361 -0.063004886546511166 -0.19546039557998435 -0.077231652273309914 -1.5957810893044294e-05 -0.0078571318809242622 0.024511853993438148 0.38130349496292426 0.15265851690391524 0.012355398556022195 -0.025728190537148907 -0.1096762132731338 -0.085962805186748412 0.12442551857701406 -0.032824605151467769 -0.05844693015021056 0.28342136518433564 0.17435142999677894 0.074523146931278886 0.14206781566571053 0.18048109511833968 -0.1612108749201922 -0.26163273639133944 -0.12646718982189581 3.0797988261570448e-05 -0.0021540662908505442 -0.00059593237687738171 0.11471574991552119 0.169874191083248 0.30528417876865765 0.387991669049982 0.16432487086416417 -0.013576215033290087 0.2506186524970771 0.2761922968274429 0.051980696383050175 0.45215298392588293 0.39104963720939317 0.26706754040753211 0.28835132411550218 0.23240495363431526 -0.0066419513912613195 -0.067827976909540538 -0.034895164292401998 -7.6696047146506858e-06 -1.9979824613302087e-05 -0.0029173063131502203 0.028935858322388677 0.31343384354874748 0.59072075429382997 0.6213900175021706 0.37570691750128077 0.23991370199498116 0.26262128915335092 0.12061117622325954 0.19254458871398084 0.43868385355175832 0.15845958053538847 -0.050123999477539177 -0.0061452202243937777 0.014970369276955614 0.014238434939115745 -0.00092279963633413835 0.003287460856967247 1.816807079223586e-07 -0.00013667106817484169 -0.0010776298882749246 0.021781989915815682 0.089105221117186814 0.16153434988792004 0.19075267665046217 0.16307666750357327 0.12010785646368799 0.06352978095507783 -0.059100265059878011 0.014566069789847872 0.054073287497350984 0.034709291507623793 -0.022040194983490618 -0.053701911363873069 -0.015683150319993761 0.00053548269427243847 0.00062665684176478663 9.5621680905296676e-05 -1.4586570239172027e-10 1.2904688243157532e-05 -0.00036265209607837674 0.0018062283267921376 0.0038371602938041312 -0.00079319116092371874 -0.001337241589980164 0.0079648993323748456 0.018963478658037936 0.0079272856349104151 -0.00035705519548070481 -0.0048245581657553605 0.0024477257355014514 -0.0037814649294226647 0.0018715132015714453 0.0046878747711770839 0.001203922905783367 -0.00012095165716681482 -2.3366966085098156e-06 -7.5066809935584682e-09
 -0.23969329866953429 -6.3183580544713677e-09 2.6412862972818751e-09 -1.1781019265842096e-06 -7.1242499772403563e-05 0.0010231074498219406 0.0090656141143387013 -0.0014633501375448327 0.0028252914429597559 0.0022033756172279407 0.0024190854400413758 0.00066240940287567497 -7.8133376742464406e-05 0.00014436677883721807 0.00060172672449026804 -0.0014921438579803062 -0.00041240723703802316 -0.00028166366908978914 -3.3264518628215947e-05 5.3299911133064117e-06 -4.2043843964425361e-09 9.2165916554128454e-09 3.5072885897190491e-06 -2.5740556348349234e-05 -0.00027786278159642276 0.001368355335710475 0.012618755901174172 -0.004133181115727181 -0.039570676207755541 -0.019932711514611741 -0.012638790796673261 0.00098105624490299188 0.0019089583996206823 -0.0036519301233498011 -0.01239592049539217 0.0110256394275697 0.0016144061296238287 0.001486152442640782 -0.0010000040954666334 -0.0005110825535796545 0.00017447041331949899 -3.8728055246397469e-09 -5.0779956884582214e-05 0.00046502203409408589 0.0014229480551041528 -0.00039765760881215606 0.0044217909488170216 -0.0017700113025147224 -0.11957171644007862 -0.10205424775438371 -0.088989490680396036 -0.06924771021148364 -0.067191483516586034 -0.016865296607395393 0.055450530070367418 0.098025525919262446 0.026956490504795164 0.02928227328925662 0.034971124667098764 0.0069866899206459786 -0.0024047763148040365 1.1268304814899527e-07 -0.00013214158311467128 0.0020106615434236285 -0.003171761512731866 -0.0027511798584370457 0.008519615649593212 0.023964678310769597 -0.11075862104194838 -0.19801567643288731 -0.17157115981404816 -0.076988932196901005 -0.044112867650492736 0.19356602805245918 0.34483129867879536 0.39975641204635415 0.23742799873254822 0.066833176750232884 0.022610856696711593 0.017774147334899348 -0.0052167537889776482 2.7481889621161932e-06 0.00020908955312477458 0.00014528490973902085 -0.012033522912875275 -0.0014546256406442275 -0.029614853077420972 -0.14921633494023742 -0.39650144834304812 -0.42048699224453828 -0.13482679647058343 0.28513371657887854 -0.047208737094567736 0.060445164897333904 0.3190851220737087 0.41289325922095604 0.31103382769573079 0.082869504780704095 -0.11098308978700847 -0.083403614427794065 -0.023142585373927632 -4.7258389797690559e-05 3.9081013231123487e-05 -0.0057509407312465463 -0.00974463006663253 0.11631470146915376 -0.05403295601732281 -0.14639447573744235 -0.33495620645762098 -0.18519346329010328 0.16803263040908406 0.42112120201889919 0.40748512095957917 0.24967098456639605 0.35243400045186241 0.32667208769867212 0.19522534257086704 -0.11943347651968635 -0.31694294982164073 -0.28745169231671525 -0.048932273941721803 9.5897378320975798e-06 -0.0033155722800048857 -0.0072442329996088824 0.082234169700457646 0.29460407095764302 0.19429433321781256 -0.30775438917973635 -0.36048885745445064 -0.27723647543739172 0.23752682901383823 0.39642660770634758 0.29146206189933299 0.12121624802047756 0.48489975857122514 0.46252790319948889 0.12615810394131377 0.11260729980499801 0.082462275551321962 -0.27956563277687013 -0.057911251283057533 -0.00023522671535490113 -0.02168211323278 -0.032288846472844385 0.07272164368004097 0.084674857440557402 -0.16893256310331484 -0.16192107777697468 -0.32147217971476988 -0.29198662281975513 0.49921426052522783 0.49170851506598673 0.19406492478154483 0.12308697011995615 0.22991919620838569 0.14708736452818752 0.054399479753886551 0.50774229174422003 0.11495656004002372 -0.44046981156803766 -0.0089195142499040158 -0.00094591142537280536 -0.029613951584793855 -0.063503440881842232 -0.2594965201384995 -0.27857701358253023 -0.17600605716669629 -0.26267250143877413 -0.31783177900652398 0.059814081756738212 0.88813323448865755 0.90561597199350563 0.4885383461579807 0.14540111328092784 0.12530470153014653 0.12758511399432482 -0.21410874608672306 0.35324352164993011 0.11662507181792621 -0.49208772645546528 -0.0019000112636243108 0.0011760368892529199 -0.021465535125371603 -0.10931740365593433 -0.0018853403742600684 0.014178343412779992 -0.34358644762809137 -0.41335040165220194 -0.26890674141794557 0.25544264832486119 0.6467667392907499 0.26847685995947568 0.35691747923474432 -0.042476971954321777 0.14516734242002127 0.0079015120209769002 -0.17446752888188874 0.24044341605399699 0.14430687700794015 -0.49078088033970074 -0.041400549175023997 -0.001504387801831012 -0.030790868418868057 -0.065382165872602066 0.18511290399169134 -0.050000313423281664 -0.65681082722247808 -0.79521239122735088 -0.68831947753447431 -0.18486032283760559 0.18652438510812205 0.067961598484655814 0.55539734986573353 -0.1177738186482233 -0.025059092437398532 0.074976032936955081 0.0030809408037607657 0.22311882334041799 0.20621404288446202 -0.42730009130087632 -0.16001848601464669 -0.0055463704194342964 0.0037498468906398412 0.066362564875716012 0.24192697342046382 -0.077436916049149054 -0.61444103720955068 -0.27502240934556926 -0.019725729279757874 -0.27807560015078653 -0.012809161602082668 -0.054252552220746576 0.048276786429545367 0.25032428397495926 0.23567921142049203 0.23041634504231914 0.083940773804569629 0.18569085659599463 -0.13162241892543231 -0.20160326349655194 -0.084280858616478341 -0.00072218954909945821 -0.0086754392899278578 0.12136258876051831 0.49221156308173525 -0.052903103230527299 -0.22438042634394445 -0.22169049616311481 -0.026274047003794126 -0.7345880932506208 0.045204974936938008 -0.23532854625301866 -0.26052929664638502 0.21229371255401536 0.030767765712447076 0.4337014274920773 0.22114209324142328 0.17701750240203759 -0.081954444235033883 -0.46103368576301074 -0.10401425175302662 -0.00062475203173463912 -0.00059815428702414278 0.081446577547946986 0.30508200483815401 0.0046968103956147832 0.050978072303452387 -0.037678575540971045 -0.22081836577685166 -0.3587635631508726 -0.13521690767557618 -0.13620305612184169 0.15028710405149007 -0.1286886084282719 0.13515887804772944 0.016090448279200829 0.089589607166632071 0.26759301167495514 0.010830046761785924 -0.33202076172043987 -0.086327755346295318 -0.00010148388397365787 -0.0040248947789405997 0.048506992463387966 0.31253384187486644 0.31110274001355798 -0.049605549266358601 -0.169110460601399 -0.24499453797855011 -0.55067709905113726 -0.28978308346760007 -0.2997925697467782 0.15361021229252547 0.042739047848172673 0.12358245179244588 0.08879160184380358 0.060179480203427109 0.10073953366385581 -0.038184633129158749 -0.19543676549625924 -0.029354791599998889 0.00016226093264333209 -0.0040472244855297764 0.0063721828094487577 0.25841257800113576 0.52725837282236043 0.27832529430217884 0.12806461500334845 -0.1858320033094592 -0.33131953241253559 -0.11238374248566708 -0.10524438685587484 0.33892160125200405 0.41956258368213112 0.29793378721973224 0.25635231408684228 0.3133497701032823 0.18338007702385081 -0.099555736529093386 -0.19817172532238506 -0.11024732736785801 3.9965846012982822e-05 -0.0015001571342885675 -0.00038111266460101167 0.11061696275763597 0.47543905542092407 0.57665794252263924 0.32134061714235634 -0.010552357203844476 -0.041428699648818984 0.04595143570184361 0.038262071439140136 0.33371590860561628 0.33355008376496914 0.1646287478631199 0.092812280252089957 0.074016080477527613 0.069780198383812747 -0.053877652088955161 -0.047579690577544388 -0.030867169346931289 1.7372373705650302e-06 -0.00043392190432125984 -2.4983409470586047e-05 0.031951004336979123 0.25872579270743123 0.44269647354390501 0.2911492506065726 0.013889934474350111 -0.044448727472984416 0.015939910819201115 0.098954074818307924 0.22244760521595811 0.15739885931082059 0.021387598179496828 -0.13600637851201455 -0.14946272209420769 -0.024722310065580788 0.0089977184444009206 -0.0062851614959429213 0.0046036760324001955 -2.361729546308073e-07 1.9094971650458142e-05 -0.00085847518026336428 0.00056817201859796153 0.093623271790695212 0.22844611505737589 0.14556491970281599 0.048001207916110587 -0.023493546899597276 -0.080930616518299997 -0.038666866261224578 -0.021435715556746348 -0.020505849500923188 -0.0046574899086855763 -0.00083958778103599828 0.0091779154473268509 0.0037329523541554106 -9.2183349582593025e-07 0.00026670845552124962 -2.8192978870657199e-06 -7.7488429913437551e-09 2.5746240447168619e-09 -0.00014980860793914472 0.0012370884675628061 0.0026081783992521518 0.022428790283436934 0.011442452601769374 0.00013827396569518623 -0.0043478924912174564 -0.010190036837581688 -0.0013149121136681091 0.0054546494687248721 0.0039385694953897044 -0.0026830613247839155 -0.00030508146794730082 0.0016022545981459863 0.00031281675642227903 -5.1060279973981453e-05 8.6840917400432924e-07 9.8874362402485915e-09
 -0.73162537717377463 8.1477672395832854e-09 5.8587919689520086e-09 -3.4640800116247088e-06 2.5752079005895556e-05 0.0001587942710016063 0.00051612380102390222 -0.0030923996332931003 0.0004181520204553673 0.00078102346714697046 0.00092654965432043706 0.00037638181043979976 -0.00051386854615846481 -0.0016825433034914565 0.0061316781403937329 0.0090064339015758742 -0.00015001909050657192 -8.5121790205765013e-05 4.6919295842614305e-06 5.1369765335213313e-08 -5.0012512869759026e-09 1.8851525758172779e-08 3.949653376029374e-07 5.2431821417540642e-05 -0.00056805736386474515 -0.00055709739231556827 0.0023862369405436529 -0.014399171163642567 -0.03711276137461858 -0.018693778661147062 -0.010156056897198193 -0.0026524247714682057 0.0069787475060025693 0.019759845734775149 -0.071433344453712952 -0.1041753025158265 0.00030556949861831125 -0.001838861730104278 -0.0032336723374111732 -0.00068144900450979563 -5.6200888802060932e-05 -2.2409546660779687e-07 1.6268447746275566e-05 -0.00022693756955094734 0.00013874413897008018 0.0073341343186257429 -0.00097337999030473049 0.013069582058827675 -0.11172442960292508 -0.20622020711663086 -0.1134361578660041 -0.02264175657561077 -0.025985262845130905 0.044393451579060043 -0.010212979026586704 -0.1003502694951045 0.048881555152522065 0.05179670974955275 0.048984998428995528 0.00631996940371902 0.0011534556528607558 -9.2761288062021335e-07 -0.00017634226141308024 -0.00040121233237604544 0.02320597683447163 0.050329960210206422 0.056737675794868193 0.055155348006788292 -0.060223281044894522 -0.038155594407978569 -0.026448035170049341 0.0084717793760426801 -0.057611666523944692 -0.065199593458739158 0.15788149881468294 0.25877529842485092 0.082438105350888538 0.11470604946951568 0.12460814694395821 0.019967143641350295 -0.00106287634167698 1.8769616908925601e-07 -0.00092359994083507509 0.0054962901225947113 0.054787327905241739 0.08346552317962698 0.19167817506133875 0.22441924256096449 0.10235337882926313 0.028839568779506147 0.025979595094986513 0.0061309049717827458 -0.055234356394888925 -0.13591323524591081 0.15076040914797731 0.41144594547946861 -0.022165954216226604 -0.075865218487533914 0.060205657528068807 0.028882993004890403 0.014136767532221548 3.9107142691297543e-05 -0.00064114299395074098 0.00409512725135186 0.027764659552749114 0.061648795582896716 0.10720831702312413 0.11077620211596582 0.077092704924815333 -0.21706737257284978 0.12643620231687461 0.20490579690106092 0.0410055139232718 -0.10179698322413608 0.10314008687753395 0.18573529770245967 -0.10327759254964471 -0.14129775485284651 0.15260900335131694 -0.022365313128940575 0.014471287980282651 -0.00033558360817472209 0.0021129984300332586 0.035718457181883448 0.1361240937802155 0.22732967095164999 0.13731373818015669 -0.090301016056921798 0.18083126999711749 0.21926602587258398 0.2620382499997046 -0.040679485599405762 0.043896621632921289 0.20570676163330395 0.3903668260736719 0.050366968242165855 -0.037410318842949021 0.066843408291021797 0.12824678175987245 0.002732168598338261 0.012431127800601289 -0.00025185544624927727 -0.0012445148818030671 0.10153877551805685 0.39084649320448095 0.59729298925293883 0.30222732416817383 -0.062072629250044406 0.064280790975331681 0.44239981114969262 0.45835425356553378 0.087957177445650181 -0.030183936193113641 0.041246358828233826 0.21740671243549059 -0.073254111405292727 0.082081067779123273 0.12917267217456257 0.12722158155106833 0.07903514837421724 -0.010811419382235461 -0.0002592858159198949 0.0021955579275378537 0.11017207204442338 0.45414168996852089 0.46269888856605368 -0.19449800384714466 -0.45827840068614145 -0.46338097840590653 0.016808644004584226 0.55595281123958828 0.39450585417138079 0.31638284606051259 0.019949225751135016 0.16339629781317086 0.081355182979923807 -0.097751619711026624 -0.25224084649451672 0.0072580396287211463 0.15000764594308111 0.0094055338953146477 -0.0014204801244321243 0.012982460344780729 0.18304723831026126 0.44636100491413849 -0.051008411185519575 -0.25698826887761461 -0.1709889578778935 -0.88030475246347561 -0.47553109868059301 0.26699072719990524 0.36766346753042006 0.23302623021829433 -0.13345875855121683 -0.093016923287436146 0.087773914939774572 0.029972470161133438 -0.089694762178554127 0.15873003935315733 0.19559403046399162 0.012125120392302282 -0.0026471046973390944 0.037176614184409346 0.17909197592176321 0.23968688554501755 0.088167353251246361 0.15074283813688227 -0.29981098835214443 -0.66539819127366762 -0.54758184104990382 -0.037496093669739036 0.21714160852074113 -0.20238623840638784 -0.50125201056532676 -0.20385570603352843 0.3192973897371767 0.16738028609572969 0.077254226463900066 -0.096223704209593475 0.056818806999929472 0.10177493360018874 -0.0032593345941062664 0.042194315360372894 0.11348239430931509 0.24186340129440645 0.25571116108140107 0.21839257512720869 0.080779118744842976 -0.36472184843158179 -0.75358118870565738 -0.078190696111618829 0.096593784895245768 0.19408663045729041 0.11600046308811221 0.49293697808783427 0.35778663560937235 0.10568847525567067 -0.11727795156369328 -0.010856867962553706 0.094085330106458698 0.035075552732608137 -0.0043450787747214854 0.048167342562034733 0.28381345283057924 0.23389428094412257 0.14302318711384499 0.090235996430258369 -0.1139958599732334 -0.2003287145794547 -0.10680303163395691 0.53010312950507321 0.14239874272104561 -0.045898043903862401 0.1419138786756117 0.26240802528072249 -0.017701881559879205 0.16760605825480657 0.014356147086678707 0.08737169134177411 0.077444140741020698 -0.0023525138641604295 -0.003505032554345575 0.045008073879005496 0.24241535275559165 0.050300421788147004 0.14137933000274602 -0.056093609095092409 -0.25774141776921389 -0.040079683362975863 0.034044929233461377 0.25719029953157813 0.075632552616740817 -0.062199077466514055 0.22361016458250535 0.24925850634998245 0.092783010234740615 0.14761871507544005 0.17787945002947697 0.23577277424291995 0.089239903507338944 0.011961711795723218 -0.0022849814278226954 0.029388001265604102 0.18859085343839069 -0.048746329570024408 -0.10595189576060723 0.010480409838258686 0.12559005839912402 0.082464400956411998 0.118893968408206 -0.15705267368228118 -0.18085961287779742 -0.2353420292367718 0.1523540209719795 0.15683670928647814 0.19651824836225043 0.18845277139942063 0.19804205996691965 0.25656894817048859 0.10576690966484062 0.0079761509155576119 -0.0016383609048674639 0.020535979236667192 0.12089254072431177 -0.089252211377445559 -0.31967718293931097 -0.17750077941424164 -0.025719042488896234 0.018964530538254108 0.10494320062725956 -0.21097778939029177 -0.069796763561539174 -0.051554513594429793 0.12156720151686004 0.25704079130050583 0.3574014047707893 0.19326758828792009 0.12021531525981864 0.16596279565684771 0.048042007406160034 -0.067222886838003926 -0.00046342117842889145 0.0060945145238261722 0.050998287072984309 -0.070441442254468148 -0.16553498989127785 -0.095358793645790058 -0.12591414551817434 -0.12228029427151783 0.10243284772233861 0.13452711508032478 0.072798445805898157 0.0097209043198936747 0.15157895641918226 0.25263469338143468 0.27046351201789987 0.22187424974984182 0.16708928900169584 0.11091490318803739 0.05220645527030298 -0.017393328848285049 -4.93416219476258e-05 0.0016011664019858149 -0.011040987667397698 -0.031479449135232644 0.0017337938747647563 -0.081808393918571087 -0.30238413226097166 -0.21924554940173985 0.011973281744038331 0.15745100563425346 -0.013588308639585022 -0.09756878650833227 -0.013564739780827402 0.059420941007141674 0.054988943947796104 0.0093157938252314918 0.011575172915947073 0.0053742290351589195 0.005617997278306839 0.0019080965587335572 3.8772650333132063e-06 0.00048758103306875298 -0.0066892123983927311 -0.0051305636583777467 0.05637983626334319 0.0034661510022283223 -0.13717072239767714 -0.1693910553935376 -0.10196515874418337 -0.013287301963285487 -0.028889971856689602 0.020746108935878717 0.0286067710815891 -0.0030432255356452366 -0.011051583001416681 -0.030605016227791906 -0.0088528014751075128 -0.00044309236896130418 -0.00067236012346452625 -3.2154000938343588e-06 2.6379965531393509e-09 -4.7242953140509891e-05 8.2913210702397381e-05 0.0019846015979919063 0.049166296975601161 0.048191041611986028 -0.0011727102922247912 0.0017402261861509693 -0.0066811897527506402 0.0019131214387138771 0.0037988231519093234 0.007409520146895862 0.0069008525904020682 -0.0058540052970089129 0.00013806303992162339 0.0025527512322125892 0.00069878865956252763 -5.2958437102964938e-05 -2.6538190986655239e-06 -2.1766092594413272e-09
 -0.59794117420973802 -7.7662810282939925e-09 1.074443695618025e-08 6.469151653489079e-06 -0.00011578062274532255 0.00062287345078010337 0.0062954609136163979 -0.0018562181366852122 -0.00060416506550222077 7.5111692690018618e-05 0.00024760925914931261 8.31132358139731e-05 -0.00013327907312099313 -0.00033386877822706257 -0.00031240222195474038 -0.00055406739516305212 -0.00021488929954257389 -0.00014579894260201873 -2.0898917176042544e-05 3.0670102898369058e-06 7.7507029043725667e-09 6.3770619374285969e-08 -3.2904538391403386e-06 -6.2477194025907122e-05 0.0007736842479894486 0.0021827292668450795 0.0086624671709260755 -0.0052677687109726435 -0.004826217220104196 0.00056484709587169399 0.0048453164462480226 0.0052796057819865976 0.0052722520963528552 0.0035770375973397397 0.0014299447659006951 0.0035702474808270504 0.0011834268582395339 -0.0005844391137745967 -0.0036055073389820742 -0.00074980388027168048 0.00021690838242367755 -2.8927145771776221e-07 2.7301430299666214e-05 -0.00032729788943642387 -0.00032621588905565617 0.0017631987275596817 0.00070298263623692816 -0.020153418149276545 -0.076853205181215828 -0.10754280056942091 -0.10647263617622056 -0.065194934379192673 -0.01337243937486008 0.024697865126564737 0.047800296879020002 0.036872760620742726 0.026397196666344828 0.051751738006130969 0.08159340006755017 0.0079890712089905822 -0.0022323584620144916 -5.1271810630578382e-06 0.00011396654508414916 0.00038922765664484453 -0.0086378108111665429 -0.0093598748334796644 -0.00065189527200846371 -0.047560883955065775 -0.13511723944529402 -0.17199633367817321 -0.19334445279642024 -0.18809505687188569 -0.16561945061950753 -0.043366900822241206 0.074567082422302422 0.26909780171543835 0.11058257570992057 0.056979807232386319 0.11603529999689749 0.025903924908537126 -0.011899041842979947 -4.8655776569274415e-05 -0.00025520404243377983 -0.00016583166242029257 0.023369065620994691 0.096737717800571638 0.022384430066762794 -0.0054495568392071312 -0.086071807001332795 -0.29469670558024758 -0.1572101688443843 -0.10222542886147225 -0.15826092040957765 -0.16805118681205944 0.061914123273623618 0.50022074152872742 0.38963392238375166 0.090340164735168774 -0.032608978408960924 -0.0062912832031409016 -0.0099233301955195981 0.00047914153357511463 0.0032008246984822505 0.014216702551705157 0.070292491719430764 0.071788128157634953 0.12515990789049813 0.083450554800681462 -0.12607353009104089 -0.15036814261815037 -0.1023431586558812 -0.17745202080294784 -0.11988297126978466 -0.13308413931498814 0.10442412271561813 0.577309303527058 0.54686895247046075 -0.0112912156303825 -0.19089286658415672 -0.10630315063147772 -0.0077225106031277718 0.0016108534619374041 0.019669219658316001 0.048724324872589451 0.060452267330893143 0.1123206682185522 0.30189821180702514 0.064752613831449604 -0.13677958088352302 -0.084971450658969758 -0.075990709800234507 -0.32374631189331221 -0.18884481876684792 -0.17769353837280447 0.051633495763939656 0.45305762475374101 0.45432488946593474 0.18826121528334713 0.057792939280409711 -0.05334449969860354 -0.021290709044332126 0.0015209751502012468 0.051635902232576518 0.10761444300760828 0.074900066546623928 0.23526052021070906 0.15897880610166584 -0.089768184012326474 -0.23174535163572318 -0.17357003263124979 -0.11356135157053218 -0.1291218924752113 -0.062132147897174479 0.1269112614035727 -0.021092957485006877 0.33885803222070676 0.45850482727143604 0.42579479500405054 0.2399435115105592 -0.048145901203467026 -0.015880109970700659 0.00389860640284115 0.046381865299630731 0.13658349042878448 0.19150649237299175 0.062517678597469525 0.13055422644923059 -0.012500052140231893 -0.2703508951497175 -0.14138560563527872 -0.066606794049263174 0.073824822717667188 0.19584690949378392 0.066124656583433056 -0.095559708750955374 0.30556186522933393 0.42752444988579125 0.32981014408747311 0.14871125415670194 -0.065547720896842424 -0.028574470298755636 0.0011762001342725272 0.022926014670977612 0.20144372457341844 0.41896092326928874 0.19973224466743356 -0.018864201450625076 0.045304694912044696 -0.11044173790685556 -0.089382147756703403 0.15435497316977195 0.1394714159024989 0.30414188441119389 -0.04447571320870003 -0.0036836453218754475 0.39250720311617898 0.32560988480858261 0.36075290056922255 0.51825898941837401 0.082034902137101628 0.0035347806862121734 0.00019939278911010477 0.060647968333481857 0.29941240981258682 0.54511916937188787 0.12197602224634123 -0.1291992180946574 0.1759729236288482 -0.08428517244624649 -0.10584162032924394 0.35506936152223667 0.14915298473990801 0.21494258104684605 -0.51865816627923489 -0.36266405603956764 0.58807230916376019 0.5074414966008105 0.35548569266803576 0.32685149519654316 -0.13438713753943593 0.022970784900391821 0.0038087696681363913 0.047071787294833703 0.36871167136282973 0.63354061948150542 0.0020016156724983539 -0.12029856013827993 0.092511713187433925 -0.2171117679918155 -0.54879919532053512 -0.3190838065227703 -0.42718926952027969 -0.4075828562441442 -0.49639728574067588 -0.092635558737751839 0.43018827902571521 0.56164190596387698 0.39439538413426956 0.08614183013896741 -0.082808210103507002 0.0086984448998459422 -0.0023852018616832547 0.065404217382292032 0.27765211077056673 0.54901039447327293 0.091144670045608528 -0.12711770431588224 -0.01287638271402069 -0.102826672477559 -0.37025444359081938 -0.4298289952338909 -0.44221685001981409 -0.62716114511308496 -0.41267010584189806 0.14494660362292419 0.51077733794745439 0.527722005505188 0.35381138926994443 -0.039600260084198875 -0.090613688817215404 -0.025896096979970182 -0.0020248187306921434 0.043195804196939164 0.16556475239630086 0.38507788184035358 0.36299502428838964 0.089429426880750437 -0.12490139253295059 -0.25094182658797748 0.12654424503985909 -0.19730993149654075 -0.46019978810672046 -0.36681660953099449 -0.22130065944876659 0.33746702923379868 0.53428287397347041 0.49246218532596003 0.41582327278272119 0.17722203972562464 -0.05018180355576872 -0.062984250267230618 -0.0014228446186478434 0.027527306311418746 0.055532709556038402 0.072251458357574905 0.15168817429670356 0.052088953296466414 -0.046233564819722538 -0.03196627677386446 -0.064323053526430293 -0.14661513402174264 -0.29145875128519516 -0.061145051559922177 0.039799565096079584 0.18304267566447902 0.28653539654515153 0.19461733888317836 0.060433122724302887 -0.052795179802981894 -0.12081372867073852 -0.021315776633192052 -0.00041617707069607415 0.014747224188787267 -0.0090244906234204225 -0.01469039315439216 0.046784408661815352 0.059300112328546602 0.122180286248166 -0.050900553406673391 -0.027300418802284128 -0.040633237335388359 -0.31270074228470024 -0.02267829940819209 0.32539316059139761 0.38968405040703646 0.22692300017356748 0.10058157819021887 0.026954832136638292 -0.13656716248346878 -0.11558870155006057 -0.039634183105734633 8.05594298681418e-05 0.001083240335047721 8.5311814641511607e-05 -0.025738009723905088 0.047634145950926902 0.16540906983417783 0.15762990601341742 0.10844060060902008 0.2782380962232664 0.24075387756160241 0.0664701434480892 0.061646029958117854 0.14324930649932813 0.33028170735639356 0.21470727941075429 0.10202623843092762 0.025209407569222315 -0.093982837392003457 -0.059901968454410544 -0.01136033054835371 7.2860078538321182e-05 -0.0010242246721826496 -0.0026863366129092499 -0.0083375725166396283 0.016923008880248797 0.079510413292544158 0.17473867414924538 0.15920666980619363 0.19760181614583217 0.16310730380439162 0.16983308826347487 0.099534740382526049 0.059079048237472655 0.11321115465779302 0.09534037421539529 0.032696540463338121 -0.013188146499849989 -0.015279944113974724 -0.017744312969057301 0.0035671634821966072 -2.8410035224414078e-06 0.00018534523414356744 -0.0013615937559513958 -0.0066264930934511156 0.033432930099889631 0.081869061275166063 0.053581319352439122 0.00071883990862632238 -0.0084060130383574825 0.016638424487501514 -0.026248988074113376 -0.0026694736186005422 0.0070044099827100519 -0.0020116894565575744 -0.00012000894201917045 0.0050787689681217191 0.0012733753139156452 0.0015780581927933566 0.0012047621978626113 -0.00010742375729060892 -7.8701280876715974e-09 -1.2896025305059404e-05 2.405610038394889e-05 -0.00058661897517722382 0.031144355174500649 0.045927596679633864 0.024637963876104344 -0.0066993058601346901 -0.0017819408496414022 -0.00090473426079374329 0.00176769137078115 0.0015455325675485521 0.0017689053288889791 0.0017765476174695009 0.00036491181108782883 0.00056640693003556699 0.0005262460066226914 6.9571335000557271e-05 -1.0402616492390784e-05 -5.6576922328841211e-10
 0.15455944228682908 -6.380217497119373e-09 -6.054734248942318e-09 6.2023092116791251e-06 -4.1991550059825147e-05 -0.00022473526472983272 -0.0019601099770980854 -0.0031510289938546905 0.0020444355585925019 0.0019449981206889925 0.0023176282755695303 0.00045886879697395983 0.0011575388966826713 0.003232919779963395 0.0020443709369459737 4.6901451116091745e-05 -0.00013128181757539616 2.0710184540848402e-05 2.3115516028661025e-08 -1.365169817231672e-07 -8.0996255030637954e-09 -5.4758729823810537e-08 2.7447765759948319e-06 -9.1114951492526244e-05 0.00069421523107789725 -0.00076788763588946107 0.0012015548332131604 -0.0092948101171882319 -0.044028321443463997 -0.029069850288596114 -0.028231156783725078 -0.0073271062136438456 -0.016774794613632953 -0.038994627161413227 -0.023836592968145814 -0.0016103308683953798 6.4404013282151666e-06 -0.00053665349933166673 0.001746486226862813 0.00011500229578347805 -0.00012930624959679013 -1.3078076021203662e-06 -7.1110502388219488e-05 0.00097837006014407256 0.0045108011000510552 0.0029535310216703748 -0.053026127071928178 -0.10918725925723916 -0.11958075912008641 -0.11992760280818138 -0.0090273868689738877 0.052563758023106304 0.022202124771973215 -0.031710228333414331 -0.03719862912375075 0.020499486310358347 0.027128372754576847 -0.0092501348771408497 -0.039024223811271401 0.003086042307217025 0.0023568391123222595 2.9488929747630217e-05 0.00048137434677471497 -0.0073949153746618286 -0.030615867503620487 -0.027177734948645168 -0.20973552068205167 -0.21105749455267772 -0.1462412444334871 -0.13857424854933892 -0.12642198452934622 0.073342969462334248 0.17437972951159519 0.13708450236480649 0.066114574799887957 -0.02147534310313054 -0.032835639975380027 -0.0055430165610821569 -0.083169980099193574 -0.025543416334326018 0.00025453659121445194 0.00036782515728591233 0.0010516323766084652 -0.0052964542193028727 -0.039731057118803405 -0.064193498590939618 -0.21640147250732372 -0.21578816441332085 -0.1707014415995986 -0.048871126359975391 -0.022682563237818098 0.12959403485589063 0.16742030398461819 0.27806644193618846 0.60095839130029316 0.10000582088045515 -0.13302897421181986 -0.062818471122389932 -0.1488364445753507 -0.12223369336266918 -0.013488169304660791 -0.0045003243909038787 -0.027441778105937707 0.029041161051894224 0.13382212772177976 0.15225538296953212 -0.007594906732982052 -0.30911700353953642 -0.22948180144516553 0.040247087041009093 0.32761069388947894 0.51325268166745053 0.57149972741361221 0.21784682331753052 0.28347798656123691 0.098100167492088441 -0.2295026298891773 -0.29891907681612673 -0.40672702865384169 -0.22658745166142893 -0.039709007216495347 -0.017751025181917547 -0.080401841605389046 0.054968668429769656 0.07242709300348496 0.021274957795972868 -0.23935481467084224 -0.49865502857441324 -0.2541752790305658 -0.04743162570675976 0.26000720017174206 0.5382596407090251 0.61929880219207267 -0.097491964791272354 -0.30585414662661919 -0.24464144874499616 -0.40455325396782349 -0.38828630301368733 -0.29878759670959121 -0.13381063879643351 -0.021840343143310376 -0.013005248795454744 -0.075811588110843431 0.0026074921234542732 -0.14349846713936737 -0.11858897915659547 -0.33033697851685218 -0.3940433756310755 -0.12886814934136984 -0.051633009980649812 -0.020819466813833648 0.14789591236887459 0.40010165427636279 -0.12877513767587206 -0.21402275064606296 -0.11733754924112784 -0.11708119188160905 -0.34517766722923182 -0.2655958523878047 -0.13077383447169935 -0.017066715625058577 -0.0056279025987007085 -0.035965092353075566 0.10088760307637155 0.086146299318646591 -0.37709176653588594 -0.40917244516355183 -0.076918949811837098 0.05502489232493827 -0.36821671529089445 -0.29453153764926215 0.03627593849685351 0.19607696752152312 -0.0099291151235165014 -0.14674289549312605 -0.20874485504226253 -0.18498479648072119 -0.30726492431695629 -0.25200728438980358 -0.055260035819553154 0.0082544841256084311 -0.0035244762473153261 -0.069544311112257881 0.10827132889232161 0.16015456460581184 -0.51593109074306187 -0.17659998918867476 0.16269289042240651 -0.088825236939071239 -0.32433283680820446 0.36613418315229052 0.52882785324044401 0.40504247902704815 0.29195580597019205 0.2839466285402123 -0.16878678413968051 -0.4807435099825289 -0.26932158502776071 -0.049960890561782573 0.017184107083541334 0.0069338117438197842 0.0044019250350379145 -0.18254647157112205 -0.11123842418682237 0.036733537356635641 -0.32303110834364784 0.036623859444196223 0.253204605944851 0.33105929065698925 0.20713069559013991 0.24592007808599353 0.16576855896259302 0.32594324825831689 0.50880028918748155 0.59973730061265595 -0.19368579669723918 -0.43626355292142893 -0.19998196869199827 -0.066020521206535884 0.089788921960021403 0.024668736880399271 0.0083922359899569043 -0.10533411726950273 -0.17272984703546665 -0.19674755849195699 -0.40212644199959857 -0.063171859724878737 0.2457977638452741 0.26637136511312426 0.026218049893089075 -0.30310806503248938 -0.007460597441332522 0.16605325561517276 0.27749838003548166 0.22782397159264769 -0.35329561155024297 -0.62711701613796611 -0.37568702114459984 -0.068547372103352003 -0.017864069597890438 -0.020926196584819777 0.0081595045634401779 -0.10771988455939858 -0.33229919963130095 -0.38589540424505092 -0.46127546657385587 -0.049124748957701796 0.27505799979631085 -0.13439828430903017 -0.29551997742375447 -0.081468077105084746 0.11867490993704327 0.15967370896567429 0.12333359848714166 -0.0056769671185710642 -0.2521464439628277 -0.37401490671942056 -0.036286228750974023 0.23995229972967941 -0.020793480239877562 -0.040560363581478388 0.0061749760402952684 -0.13747677265021332 -0.37632242021915019 -0.37034621330546363 -0.0062006593643926279 0.43283159804696658 0.34538783690421271 -0.091588041041320276 -0.46713494211589685 0.02565992803027746 0.20041468173500213 -0.16821608960363982 -0.2069496448066947 0.014166968569786106 -0.017163825808077481 -0.22745673364311061 -0.083281867048684177 0.2690601377264768 -0.019064292523786049 -0.046583857989467764 0.0012265483410868899 -0.099054451101902086 -0.30061973230818273 -0.26933244925857103 0.16594693808361166 0.44549516517087151 -0.0022906248629935787 -0.20706649758978848 -0.31323576305131362 -0.023348512989892472 -0.19744089317437299 -0.32170798785123322 -0.15246555007166468 0.10277383985975318 0.034475055732909959 -0.078755207428203508 0.033044973969579165 0.27557295983927099 0.0029794708322760941 -0.034804211043577664 0.002025585773440748 -0.047175726275605102 -0.19396966245856487 -0.15728846130277657 0.15849909189396641 0.49037483127949849 0.23435118020511844 -0.0083263712701384905 -0.24312473381835203 -0.27658803310196761 -0.34032418012652255 -0.18660438887203673 -0.061921488109932789 -0.0090474721981207134 -0.052845662349086608 0.0052294733177020644 0.042291718112338651 0.1738766825384977 -0.0083667599311395349 -0.068988392688963965 0.00023206892514128564 -0.00033243833743089107 -0.094712747021602886 -0.046063932648920898 0.17168842490043953 0.25606272095099847 -0.060298160226007869 -0.076878661919365737 -0.28396447069743425 -0.48134825520144697 -0.46711837287047542 -0.20819356781788098 0.091292661324720317 0.11367444725652927 0.1972056871988021 0.2548224953910756 0.14276302268879548 0.1456396861730849 0.053722829173210529 -0.012884966228215028 -0.00038659438897331485 0.0044903868782687813 0.016199141926964058 0.043717256660305528 0.14810387985018819 0.29651895180551235 0.15746092803565262 0.002365853259020083 -0.1552070223833206 -0.3322131267405683 -0.33023953424029728 -0.02770336898876034 0.21362616616228783 0.17248151872440995 0.19532571334665647 0.14864750836834448 0.056395105217750173 0.0090101580546473568 0.014331970360052142 0.0010219695550639331 1.2663937970770522e-05 -0.00071116019409478903 0.0037032319090604549 0.028662158585516281 0.063774516659151501 0.11947441513118376 0.17579906278492949 0.14144831312828257 0.10631814064294511 0.0049647955275001297 -0.015217018757488579 0.11914199173334217 0.11832839701619766 0.070481676207857932 0.033932294461975057 0.012840765150083226 0.0031875904781471657 -0.0023206186326208559 -0.0011364941473531592 1.1400311782568622e-05 -4.7692619186076458e-09 4.44167971277055e-05 -0.00017032661115492625 -0.0015410072012043351 -0.036275688056103386 -0.035080278408720952 0.0068393145102652719 7.2897468030582704e-05 0.0014073866076625863 0.0037021268041820868 0.02056601980552869 0.030188675703851791 0.018150231618925282 0.011954486168386855 -0.00099141264150052837 -0.00070816572322167078 -0.0004179236276283776 7.5234560351995319e-05 -2.3838698968032755e-06 -6.8549734779974637e-09
 -0.033722572948512455 8.0517053069471048e-09 5.4202808664471647e-09 1.1046557132972618e-05 -0.00010117208951458287 -0.00013537230346328242 0.00033432576692034896 -0.0025690910706570144 0.0028477409353558107 0.0021447827836313408 0.0031686221778404935 0.00083846942162922773 -7.430031792922398e-05 0.0001681728652115154 0.0013584727539263219 0.0010956406281433511 0.00012649702948387074 -1.1642859198080601e-05 -2.0834917579043821e-07 5.327639847233391e-09 7.8500947630536582e-09 4.0831006294552656e-08 2.5167637482267956e-06 -0.00014940079078653627 0.0009586082919625892 0.0024306264250213896 0.0022320572735652433 -0.0064523033182655168 -0.026122553025168995 -0.012827941336185434 -0.0096128672938528351 0.0024957829020552636 0.0041610670549203409 0.0032815788357313958 -0.012285848884872552 -0.011378220379360683 -0.0002608297537616299 0.0010520575889306823 0.00060622264234049515 1.1404727342289109e-05 -1.0036286468648299e-05 2.7731404789889487e-07 -1.0174748084676671e-05 -0.00024993026071167289 0.0025104849011290983 -0.01026239826802312 -0.046990602992915007 -0.0059530049966363772 -0.096900685553014149 -0.14365828566164648 -0.11246521408314013 -0.052765666059466192 -0.058569334440005158 -0.048050881711144119 -0.034496702258577337 -0.0146272848752791 -0.0052075516093269105 -0.0051476936754843248 -0.0016634591761097756 0.00062122015605152665 0.00019483457510208063 -2.2516762927846975e-05 -0.0002684328300872616 0.0034778618936645031 0.013920161320423985 -0.039206066852273493 -0.0701582337162443 -0.074247984220836685 -0.16406280724889782 -0.1793849323458149 -0.037658265196301936 -0.0099650479166343512 -0.20315294652651864 -0.32887882261389134 -0.25069451446534319 -0.12996419233793396 -0.10488290329899594 -0.068861800394064837 -0.07080464218931834 -0.0033118545885019546 -1.3234851513987955e-05 -0.00011599090106008136 -0.00038025525109334411 0.0057518497697563167 0.037119805092058408 -0.041809845385243655 -0.20950751116755137 -0.25086740928953521 -0.19840361950482693 0.036396565325768376 0.32441961250578732 0.3130084988031932 -0.13702110592482833 -0.61388155513105536 -0.62545239520518636 -0.40649694428289118 -0.18689290464698746 -0.069003527935911552 -0.065713162223497101 -0.055344639786460939 -0.0092695911446687151 0.0037656037079124168 0.01583022931167484 -0.0030414955710004643 -0.021742432733906795 -0.22681867001506112 -0.56632697218202033 -0.3588258133002612 -0.085676025234074082 0.23604877239297312 0.39086088977324651 0.40389835266528995 0.25668226240128406 -0.066384713934973597 -0.68474628264704274 -0.60188361677380375 -0.12644072409404367 -0.033539442525446592 -0.19812153450366859 -0.10059150743350687 -0.017201686049787664 0.0087593230590701111 0.038202544130800556 -0.0096376679309651287 -0.15234667866504167 -0.23671847488681264 -0.3701361777724349 -0.44016930018534184 -0.14941885550624601 0.3142575541146222 0.27835431009430345 0.27565291332509756 0.56283210445556153 0.48636124624815169 -0.064153004181048884 -0.30120792297928073 -0.1735353894199044 -0.03234933889859775 0.029794263873143507 -0.03410300647825408 -0.017156685241554347 0.0033019055110672709 0.042347610140530526 0.0023014777568657265 -0.14400695154872578 -0.27338277359459595 -0.40671931581458193 -0.47307121559436183 -0.37440083681568154 0.24603778022137462 0.42975396019814172 0.13951776202401531 0.16502292880240985 -0.013521341169903903 0.37416756420435282 0.1728686748901764 0.069434659889041822 -0.37028864264539441 0.005978170512350155 -0.10273063592127832 -0.0094433641376054124 0.0037843394365828795 -0.012567912264202395 -0.16000500576824273 -0.26452360861955715 -0.32938234355685536 -0.42783464365126955 -0.34211176069348831 -0.18630477298725978 -0.019607308929588653 -0.015021468987182825 -0.017562179210593703 0.22488373084916988 0.19587105157791315 0.15324232387329936 0.21898127268523096 0.12755670386741486 -0.50034774355672551 -0.21225361990530769 -0.23666945717824481 -0.010010843422650064 0.0058578458408705706 -0.024767149502196072 -0.26626723531610591 -0.31693478114014839 -0.14514572445951884 -0.29525825555435598 -0.18910764105571776 -0.18435182432032396 0.053016324163702902 0.17752761788146448 0.17598312986375456 0.3710125118614428 0.5544436594761335 0.42669853114970813 0.20661349020776279 -0.051285665812790496 -0.23744255277749743 -0.1811596746223319 -0.20819922512061267 -0.005037912621403612 -0.0095121700064211678 0.11728902470508683 0.059416855413266703 -0.13522877357578814 -0.31753866655748691 -0.20825491574621818 -0.15267948034377402 -0.056821484022068568 0.18000527748860862 0.4595026347163948 0.5202972245935179 0.41315336583183954 0.22316213021872083 0.34140377521113296 0.29539151731504804 0.042978708333487423 -0.084040291907719777 -0.36273961803755161 -0.15354932684858164 -0.049787323334631158 -0.028525154404319266 0.071202547902162266 0.26015474976976938 0.13792927124349652 -0.3379480606121828 -0.64458051910370051 -0.11662104236080859 0.03526317433571835 -0.045568462244978111 0.087243674381027619 0.031150833967213871 -0.059161572037513002 -0.37938633851597481 0.022751683401427601 0.33533297537438 0.25908171462457391 0.24109721394912262 -0.25475054393168844 -0.14870819895016793 -0.033865324237867915 -0.013959471809027613 0.099991887828038223 0.16507218970960685 -0.01454331013986322 -0.24946177892320287 -0.38483148490913116 -0.44616603809139971 -0.24945262694862674 -0.14155896194167694 -0.034380738634992372 -0.11761260746076521 0.083707508356932608 -0.2939162237695444 -0.20930818994579248 -0.13783263993103601 -0.0010878063411596118 0.44533998508279804 0.059333817018124228 -0.22004126108924699 -0.03401374844425889 -0.0091823040140878165 0.12540815905944144 0.36263311652376323 0.1764944576528403 0.15320868459852577 -0.04341220248174419 -0.55368646562805113 -0.47137099114133224 -0.20060808962426671 0.015949055717899223 0.0134047245387484 -0.12075065123866854 -0.27571920825069901 -0.10930140020960856 0.016329947049855319 -0.05384147758988727 0.18545187276375252 0.028549438772271625 -0.13003533309272558 -0.017289346841586915 0.0013370259548670413 0.065008312301759949 0.32654917893719054 0.35050267148492931 0.096199747781072015 -0.1827384415057077 -0.54579849046826967 -0.62821588486273905 -0.21772535257731102 0.25630119540883711 0.20488615858516268 -0.34011647717340115 0.041053989413859009 0.15750739216029747 -0.29530596755458999 -0.3686505268589243 -0.12292609369317037 -0.092291750357700625 -0.039636450268628005 -0.0096409948782479275 0.00033871370144718222 0.022956247921914211 0.10693334365853524 0.15520553342982937 0.059139649970796168 0.034617799155041068 -0.55745036135480686 -0.59779639786097127 -0.02470029912766375 0.093926076741594963 0.14251905131609185 -0.10774600130131215 -0.26598595407801395 -0.38288389419532337 -0.4367118127486157 -0.38642240246799031 -0.22464596406504864 -0.13535792937852484 -0.043056690503641706 -0.050355785633559497 -0.00036477938359761258 0.0021618296834295348 0.0063853931511472341 0.1131123762540492 0.1523506558527068 -0.023772143318790091 -0.52136446734589492 -0.55471946780210046 -0.10614322117633519 0.10726944972280945 0.14042366903376105 0.0067119407613241006 -0.27435964354797621 -0.28791603981446645 -0.13346285871332242 -0.12838407026017465 -0.042466580805320876 -0.00093162758905250131 0.017851520351337653 -0.015412166887099095 8.6703464517675413e-06 0.0018726370628251647 -0.076815774684169877 -0.055559282980843699 0.074252103236707126 -0.11125439593002737 -0.48342816935492444 -0.35193503085431649 -0.06910771005282261 0.23118616002582884 0.10346032411743182 -0.19004709487732335 -0.19942279806014288 -0.089875219372481566 -0.062325358000005965 -0.051064867560436655 0.0031654810065103573 0.010852191481336888 0.012325006299956717 0.00030321960523673212 1.0425128074124726e-06 0.0010013696967121016 -0.007262223715791989 -0.041458390689383881 0.0084351243157845066 -0.04641468185375941 -0.14808332467472787 -0.097075455551783402 -0.083133633589065004 -0.0063469287931817251 -0.049773098027115034 -0.23379884281956559 -0.14239898130638834 -0.052385661859925006 -0.0040077057698198609 0.0080663276770392561 0.00064538217165549809 -0.00035444883767950675 -0.00072769233683793965 9.0606277727481305e-05 -4.8541688041642365e-09 -8.6294299455514351e-05 0.00071218452492179379 0.0021523089160990078 0.021759900275355352 0.0069783123166781294 -0.029024123383692927 -0.0072151881754686812 -0.008401883497270354 0.00032541723087528074 -0.021570169027502452 -0.049333260619474108 -0.050395544793422349 0.011789032160366121 0.0034589325659217097 0.00071216074726427768 -0.00013446285850781875 3.5774375053157026e-06 2.87857119806852e-07 1.0930639164754441e-08
 -0.41069503375481331 5.8812007449237193e-10 1.068278200236171e-08 3.6711283976504064e-06 -6.3765462191706821e-06 -0.00037818265780240181 -0.0028687897234671638 -0.0012466600453538673 -8.1747328498366843e-05 -3.0957808047783289e-05 -0.00047454978933547762 -0.00012763613020131309 8.3934048089416197e-05 -1.8504359500118552e-05 -0.00033015168981718541 -0.00022497172028180298 -5.655467726097474e-05 1.2982329473355286e-05 3.7100617169051504e-07 -9.6169631110140546e-08 5.9242441637804186e-09 1.2193560345839628e-08 -6.4637532050137406e-07 -4.3063345884652433e-05 0.00050331020355074503 -0.00021573975755367515 -0.0041840399747602609 0.0011086738006801111 0.004730059837991042 0.00041342578615334737 0.00071297380116073562 -0.00032651343478917543 -0.0016789557747490188 1.9627186039356535e-06 0.005336108127021762 0.0045496606935354128 0.0013292228231489426 0.00054411815072427162 0.00049634489478294448 5.0712952324537878e-05 -3.8939682635748317e-05 7.5490726254629112e-08 7.5558997999760646e-06 -0.00011964172064193637 -0.00064328443153246118 0.005856900751959505 0.0088362687894556913 -0.048855456931286637 -0.025180699080435496 -0.06119453091495336 0.033479636253838471 0.057139828087506429 0.043498137280448497 0.036990203188324036 0.0058311983719942602 -0.044894802557494277 -0.022062792557360576 -0.005618058557692953 -0.0059715388912173163 -0.00087494701152491692 0.00085697790313425367 6.7653537144112352e-07 2.2329050119392488e-05 0.00011570197009521746 -0.0032165849790025632 -0.0046028944753053478 -0.03496286139653032 -0.090398525657724077 0.025098365443605837 0.087105013106737225 0.042601212633587314 -0.11228177068559694 -0.053185990744034017 -0.034645945056469146 -0.041691754395832253 -0.035418122761367445 -0.0065710169770068485 -0.017708899401428228 -0.0080037207525992856 -0.002683358800993635 -0.0033740342149774015 1.0177452543357159e-05 -0.00036397800671028108 0.013896962271541689 0.013903426950636307 -0.022395894901432213 0.032246471790683261 0.11902107752095602 0.452843624031807 0.51204400047609477 0.045109857786968965 -0.38872510698067569 -0.2489532090719789 -0.15554186932661537 0.12217264892772405 0.18442410515820473 0.14215681963455182 0.13624306830774541 0.086953755143696312 0.098264501636467633 0.015248052805699559 -0.0005897612858351527 0.00054702345681734859 0.038600146747332878 0.077460832540869828 0.091593456428279735 0.26062780652948409 0.11610462539529066 0.41988341243604477 0.16429716968828742 -0.095356419690015432 -0.37347437087301 -0.51236668490479986 -0.5610131802832462 -0.052184592864432507 0.27206071492502826 0.34803952105233998 0.26101731299517744 0.23388064679028917 0.21958314386810943 0.043386813253310334 -0.0015541675438197618 -0.0050341673155220226 0.065560069299974585 0.078389083031559406 -0.011542408683953035 0.089638126688810896 0.52581184179004936 0.50892673721645876 -0.15071624230756442 -0.35848090576572494 -0.47977267804101204 -0.42769380993515621 -0.29427336022628142 -0.17859906899391309 0.028177509555124967 0.25145162846317326 0.1850723423846149 0.038534537840304112 0.24360053280403995 0.048149233879839097 -0.0014861856843274019 0.0064361604616825739 0.082792118221839295 -0.072578132141097068 -0.024673708682435885 0.39269215417352654 0.48188403031469978 0.37942262732593701 -0.16427867132396926 -0.5666196251111687 -0.2752621210979343 -0.20785700476228469 0.20313656384712392 -0.067120090910338673 0.10967904180712744 0.12965910891687923 0.11590694135444811 0.17735601988791982 0.30196662489303766 0.009819084580213272 0.00036376789397587513 0.0019700011287401465 0.11249103960851338 0.07491092851582648 0.047785227356716392 0.5498723183589167 0.64175988691564023 0.39925197575165494 -0.1926388895080729 -0.83256816569480019 -0.72378855356626526 -0.40011974047410859 -0.17254300753891599 -0.16158266950358557 -0.14906406115242482 0.19003051599192433 0.11695724457103358 0.15945148327006134 0.45436895895289375 0.011595886942063123 0.0028967793506547508 -0.035339806308836139 0.056653747575409752 0.13660317148888626 0.36146489892728345 0.99428748888022001 0.84770335801476926 0.22063543342352529 -0.39558038171157422 -0.50785660702954194 -0.064862857750861785 0.064953733822559895 -0.051048006917420709 -0.39675011651585529 -0.099925750277357547 0.051295933394417487 0.13055070647941078 0.25505318056785409 0.47757311343302905 0.067282490185453056 0.0032785645335414531 -0.032482461115544155 -0.10330133048548495 -0.034720474157176343 0.36266982349953297 0.85990850809180375 0.8374054385960491 0.19742041416069925 0.0022391448745786666 0.26648003391690012 0.088492485952425315 -0.3728503796683435 -0.23911251174809314 -0.47036924743993064 -0.15284513958894083 0.19764653887805447 0.22208575626359522 0.09359608687513675 0.32877995989129033 0.23553676553750383 0.0034950578956916955 -0.028373467415077291 -0.05769884225454415 -0.10781415607777399 0.30596644997940281 0.94113670035636954 0.20118633740523215 -0.046405848280017911 -0.062121911779090537 -0.071573047210839569 -0.2453735192901795 -0.46222329735930145 -0.40626985946844596 -0.33903956177350453 -0.27837436690527328 0.060767817793201583 0.10251825158988825 0.20011777978882989 0.33676441422437375 0.13985583472969798 0.0014177782739496767 -0.013857343093825514 -0.038976440488805192 -0.15216559934479496 0.21608801281944387 0.57044018161166998 0.3353099942727929 -0.092170700116140286 0.088394759423471511 -0.25633880569042722 0.11276225276516726 -0.22412406048250177 -0.32390455055098832 -0.081704355912882956 -0.091926133110227695 0.020022170910760834 0.16432706813890585 0.33037485514736281 0.51942577989465588 0.061555975723200797 0.00084051697218022535 -0.011738931442322451 -0.1394137625741412 0.070953857449930977 0.32383225747049266 0.68552471383173852 0.38249771663480114 -0.0011415638092531467 0.27961562152048958 0.023902054713689926 -0.12056312807312621 -0.41951470634702903 -0.26087905699276248 0.073385193521920675 0.23776410820744448 0.093980057622298385 0.13083462525467129 0.31558530630857867 0.31516499771155487 0.0073390952974237787 0.00018164211412339095 -0.0026261204744015363 -0.10119621153972615 -0.01535007904092483 0.16773248140825275 0.55556029939138618 0.23230000428120814 0.070516704782357525 0.42160671783894893 -0.25898975059995299 -0.33385281972261682 -0.2505819257037194 -0.1915268220461443 0.10224096216668412 0.23117496931862302 0.15839351734790477 0.1258268087511385 0.12966974659410629 0.10512782946944441 0.002967442834464787 5.8989081050565274e-05 -0.0007723867420570186 0.0080459010533520166 0.023373060674209519 -0.010871640374785305 0.10478211103779153 -0.018004006311361839 -0.06556092075557246 0.079806429763205636 -0.12733726620230956 -0.20710481822721077 -0.20603576660091541 0.037492846137551841 0.32591131055531763 0.30686694429494071 0.19156201582771423 0.090468089057127901 0.15158498184294303 0.093460039196712821 0.062005186181556898 0.00014463505595062928 -0.0023830059123432774 0.079947250373553061 0.029428764989816118 -0.16052914304765245 -0.056510998703700979 -0.11189426311959927 -0.046131512909982783 0.049972881356356101 -0.07718244963302065 -0.213415957551326 -0.24089676225373391 -0.095424792886001711 0.19529436429570823 0.17569916370650379 0.094208624518963557 0.012156286915100439 0.059593499376858095 -0.0065254216169984159 0.022682283892123244 8.779939348866654e-05 -0.0028397742743115854 0.068143632099785301 0.068837798289490618 -0.06476941574016884 -0.05278802781019077 -0.0056374250740169746 -0.0094164479414649612 0.03511447039738004 -0.12950674382203908 -0.08683695796522338 -0.08840137940621226 -0.057315962029453195 0.035250858889877543 0.097146688495439351 0.061830003294333323 -0.023701533637488049 -0.02568984545709329 -0.017272198179697607 0.00048322691577535693 -3.7459769493909916e-06 1.8926675288598573e-05 -0.0011670240020829443 0.001530226932437899 -0.037159090362265154 -0.047542653138774954 -0.025480660450869018 -0.013920083498893466 0.0024228913195916452 -0.013498555236741252 -0.016391061045109956 0.0059326481309015426 0.013371261491481273 0.02256554789579979 0.010730382953045563 -0.002868523296055019 -0.00071018910088383857 0.00028275860457754848 0.00091911700085989126 -0.00021092719796398995 -1.1605124290854766e-08 4.3970931660269431e-06 -5.4138930306458316e-06 -0.0017269732156989025 0.021288773809990905 0.021945275929156325 0.011877500929662452 -0.00011634632752998314 7.0665429860676936e-05 0.0029013326946127488 0.0037378687584232297 0.0013261071681965257 -0.0044365616432621444 -0.00095251824905565204 -0.00091399225821028722 7.7659185326257307e-05 0.00014045018135391463 -1.1451618753086619e-05 -2.3604137864939418e-07 -5.5308649291789987e-09
 0.023499266812969325 -8.9386462456442245e-09 -6.5513031486270838e-09 -4.2786843487465899e-06 3.7477665781548125e-05 6.3928955903331278e-05 -0.00014975567207845192 0.0045887827341198461 0.0022873528592214538 0.0002576447812752214 -0.00030252605233955783 -5.2718020877401518e-05 -0.00029768420833542757 -0.00082994474473012619 -0.00016063865523265828 -0.00043291004180110235 -0.00058575211033167179 -0.00010568622193217551 1.2945174397759401e-05 1.0612568624107084e-07 -3.2909116711489451e-09 -8.7429090216881993e-09 1.264449826172107e-06 2.8588554592977731e-05 -0.0003726391477870857 -0.00060092240000857687 -0.0074568450967139 0.0070898459156285357 0.0086791385179796586 0.0059058884512177999 0.007580133371880308 -0.00058034888934908858 0.0027578004058763975 0.010528758398301285 0.0032232689392899085 0.0051525642389493725 0.0058114985153342319 -0.00018986918670419893 -0.0016216723101605197 -0.00030626040806992056 -6.89848348408337e-05 -1.9615512151590659e-08 -3.0030083873718868e-05 -1.0047315381910763e-05 0.002632395431564718 0.012460432952053978 0.078909722352502376 0.12826864412822001 0.12838177557798916 0.11400693014387121 0.073748621809878179 0.026902184530931406 -0.03565451692324758 -0.060024025342407417 -0.0092459835249528409 0.087068823861735867 0.039962001431832019 0.0049724155982156567 0.014620161906011023 -0.0025543122110626881 0.00059854595435839854 -1.9598664878077096e-08 5.8231673839495553e-05 0.0011916342063677972 -0.016667386576963181 -0.040125049906502119 0.07656496271758223 0.23857850755953364 0.1441131246820575 -0.060080417550139237 -0.015074150050897999 0.075095457564857859 0.018551844797792746 -0.12416386134113953 -0.17793597311084244 -0.10179226638548912 0.04164673878590662 0.098499220556649877 0.1156568485612975 0.054192526604253263 0.0044701164899624305 -7.4337848455043164e-08 0.00050700571602719147 0.0035412369547422606 -0.087361325906382153 -0.11048733266568202 0.12916376772377161 0.17019838389246042 0.077267026816493625 -0.13004265306013996 -0.0083666656579472563 0.21258778100025849 -0.05944000650034182 -0.46852846740340581 -0.45164564624999404 -0.25676175675379104 -0.079092225739516714 0.093257424970343658 0.22669255373193684 0.13907637985462978 -4.7422264245660659e-05 -1.1973997137313093e-06 0.001324629054345577 -0.0068005142661167152 -0.11517497659787665 -0.02474864677107835 -0.021176546271223836 0.074903721337681153 0.1616849136950449 0.28396424556510624 0.24982963109788855 -0.074133527632784538 -0.042544275647319961 -0.075029026976714555 -0.69015837245006872 -0.44752971856564677 -0.19405664118422364 0.22730408939542812 0.41459082658604052 0.24101850836464708 -0.0044597640718088468 0.00016374762635418545 0.0031825436319730628 -0.023335491687569689 -0.086595176541551896 0.1160986667075508 0.019881326281073499 0.014135113926801118 -0.017656223764953217 0.25706942550257633 0.17976405180523808 0.098274671220102666 0.19149110123489879 0.03511125011254719 -0.89526841478585217 -0.6897527664489852 -0.029513461180235397 0.37569522488050516 0.31460215494668009 0.2634841911059505 -0.0021347721872588201 -0.00067266724166852076 -0.035823087136307934 -0.10281995476547916 0.042226070656710288 0.15845344555010574 -0.030208279990973634 0.0053455320783170699 -0.087550786970924915 0.052915777174585774 0.3214784794889084 0.23745626700845979 0.24584958185345629 -0.15304360940579365 -0.63605070372256389 -0.74093570987312218 -0.20934699543268664 0.08174448517970663 0.19947934382648486 0.33331302933557033 0.0099595225324465783 -0.0036177866405087645 -0.049242564704119557 -0.081218818334794218 0.039611306250753167 0.022734962407380325 -0.015514793059430328 -0.019610795776476699 -0.0025625348953415331 0.052907091061584886 0.15847917668676084 0.13561312882080365 0.06105472265103494 0.024675842077626887 -0.38812636319365229 -0.87936360096701771 -0.3756110658876628 -0.040403553818548286 0.29459487549242597 0.34367989676045968 0.027476811429308363 0.0026519298925773054 -0.044266974874312359 -0.17538997893722122 -0.21079286824894217 -0.11886504208724763 0.21693913973157433 -0.055815066719314799 -0.13876808235035079 -0.059127932456932694 -0.11651112267241492 -0.13562617974889798 -0.030964510202710068 0.33269013111609402 -0.19910099921806962 -0.6357328894027412 -0.30277864851743302 -0.12742100245881552 0.14684772982664898 0.28903067457331205 0.0077423546173722478 -0.00030099059980728858 -0.084285792867011086 -0.30520069249928139 -0.39773269038822884 -0.22085774545981424 0.28519720636357093 0.055739538624998496 -0.17308513253469468 -0.022459645594329461 -0.12847160523994686 -0.21154267568740787 -0.16755535306712505 0.1932160103753425 -0.17057158525144459 -0.29926705302339307 -0.17229643534253525 -0.013853547483446508 0.13833576769786488 0.24702831899105951 -0.0070318423356122237 -0.015507297092707099 -0.076473336539525566 -0.27571241295528714 -0.41327187012977395 -0.11605345894166705 0.13407496478835482 0.19846124730453119 0.32172827594804831 0.31900258381229113 0.082994557496193791 0.063374530125343345 0.27884853721257036 0.32482299037934159 -0.11921497623218281 -0.083471922664224193 -0.22447397215590797 -0.031144272630359626 0.059886257385486683 0.17559860974584904 0.011309214331008946 0.00097694327671981403 -0.058312568449044165 -0.19289592485412801 -0.24741267214830598 -0.012514285899782103 0.1682592211201491 -0.0083944031376758654 0.25980345830319668 0.57223573746910084 0.51144907837037346 0.21101031243919516 0.41061082826627421 0.12644884856998398 -0.2372193205015532 -0.1507480940512371 -0.21110455451229257 -0.17540548265630296 -0.16580048906956246 0.02219925707413295 0.014603462906007208 0.00089459566235869468 -0.0017095203800531888 -0.12562920309126158 -0.31138433421512496 -0.26771154213546888 0.025790854537398107 0.057972643345258951 0.097355233898028831 0.11701641843975533 0.29420406214722217 0.29788256247458672 0.22227864393227464 0.1656116250410048 0.024528910927409529 -0.10878695369708691 -0.097703592877170134 -0.24370305468379139 -0.34407883658198618 -0.066237324869917152 0.025928417802023339 0.00032509983462334014 -0.00051031720341856773 -0.10074912569957557 -0.15244790136577502 -0.057953077271962222 0.18745995607146032 0.16120476594968947 -0.094823867674328099 -0.10746994367574611 0.12756633509738813 0.1999097044834251 -0.079732048797780369 -0.1896560859517098 0.058689290366656724 -0.02238996675513464 0.016324766749088407 -0.037914855513077543 -0.14375443783496117 -0.0074379627792961842 0.0185519912057318 0.00046917523628199761 -0.0045370947411937351 -0.033641592220470175 0.017583649805522086 0.17464421127869048 0.14317324402140177 0.024966485345661201 0.091689552382178241 0.028845246707430348 0.015263718453766362 0.073291625145673528 -0.27883775395706539 -0.62836069376851655 -0.39127044341075429 -0.20300449142441454 -0.021361649556500391 -0.066542767096624753 0.04942458406783555 0.051016832312864885 0.024274872931558601 0.0001267735657616212 -0.0015708270141353963 -0.0069033858998977446 0.051352300501412547 0.2328743131363781 0.14456553577783257 -0.078966609702223078 -0.030574465460938324 -0.087801467911057696 -0.18092133306859823 -0.19045242296000087 -0.30204606145484192 -0.57849979370522053 -0.47969351421584838 -0.19230363620406221 -0.13174822168434605 -0.16354695425414095 0.020438343467170307 0.048524568431538496 0.0053771214756644682 -2.4290397451065833e-05 0.0003980086738230542 -0.0011624061500710818 0.0011745945294490087 0.16912129580726901 0.1894437191159799 -0.028205259063120217 -0.11078279023665268 -0.23641350709835621 -0.23222006202546772 -0.22382146253993321 -0.35959244136435886 -0.37350004464966879 -0.1641851313496655 -0.091302867255579803 -0.070513710459181755 -0.010911544298697127 0.0095201129378610291 0.01785583871606309 -0.0020381189129571858 3.0991641204752789e-07 -2.5708581189331479e-05 0.00071822784011935103 -0.0052516677466792009 0.020372839397142899 0.062159636716421211 0.029197169334979459 0.0020653641993206417 -0.075012056681271713 -0.10145028924717778 -0.076342789147946205 -0.23616234466564401 -0.16028280192103223 -0.01160657317879444 -0.0041480306156665998 -0.0076970618315633232 0.00087846482796194382 -0.00034503045564481899 -0.0012232185413121651 5.2440536392247316e-05 1.0004098804925404e-08 1.989565669922348e-06 8.6551859111667648e-05 0.00056124568092619633 -0.027645815448807093 -0.032876630274380148 -0.017471906494341983 0.0053678726001975697 -0.0051549276565074909 -0.011330840199770363 -0.015461468508655042 -0.045319366882435354 -0.062767761602403299 -0.0092049168038496054 0.0012377760015377195 0.00081881603206330697 -0.00056498493615699885 -0.00017877036091105432 1.9024186368492537e-05 -9.8793961564394638e-09
 0.24774941627068314 -9.7254957468420489e-09 -1.1503291452612149e-08 8.5533803996884378e-06 -6.8501949811486867e-05 -0.00029536833619255747 -0.00043054798713986457 0.0013989272736108745 0.0013096348028616206 0.00057069300003867679 0.003512549849532256 0.0010684616055541541 0.00029978814000550914 0.0016716970874445011 -0.0013049610011274309 -0.001605255718337837 0.00044480170750646816 -5.2575005212098894e-06 9.7257665634333425e-07 -1.630066458490692e-07 -3.0746185594284005e-09 7.5186650426879775e-08 7.9230838260610611e-07 -0.00015256480206213163 0.0011399426861276607 0.0023889698205109729 0.0070889571101787905 0.010510939693037775 -0.00098222290820054519 -0.0010799571543425527 -0.00072458481102865126 0.0049794947715086956 -0.0022687080016566405 -0.012641220157621589 0.024096295986122736 0.024684539387609932 -0.00090361986193831134 0.0021609123680511144 0.0037674313382179557 0.00072005230301940872 -7.5687294475316997e-05 -3.5696409101817958e-08 -1.0163641538396863e-05 0.00027204473362916977 -0.0014407030479225858 -0.015360449223115465 -0.082782563787815747 -0.13753642741519806 -0.035617129032508903 0.011311373668087113 0.026550321402007318 0.048558132748946416 -0.0073040832136247848 -0.12940888369946127 -0.13960971135642974 -0.13402879086584119 -0.12331481217995365 -0.047573920487577789 -0.070183865465509102 -0.0054259561893874771 0.00057177404829122187 -6.8232130545103105e-06 -8.7216699686257947e-05 0.0057576115209132094 -0.024258467681976422 -0.09383970650602734 -0.31285186821807731 -0.1895105775239676 0.20104371692870762 0.41045692165094361 0.47502309265546266 0.20632121315533805 -0.17931123420119641 -0.32081782968447781 -0.48368897655637516 -0.39708783732661501 -0.2118196864743194 -0.10674643159453281 -0.15092542105617221 -0.033127263817477492 0.0033206016952706083 -0.00010014196225149526 0.00053718109203000381 0.0046768896004735234 -0.079317758040033867 -0.2272251300928807 -0.28806474417177086 -0.062388763064805106 0.42446788482209846 0.87586118801440516 0.70653111755035103 0.11188529541979446 -0.34616795884685814 -0.34557340261693659 -0.14552433950605606 -0.20151739238857014 -0.1135038192755114 -0.18358821611314466 -0.171072054443585 -0.021250823901740934 0.017988272678259122 0.00077916563454711403 0.0072072059416164545 0.022305404692489338 -0.19961802606001944 -0.34097132560781401 -0.19705928634924816 0.14317878063957115 0.61848996031243619 1.0089920104197974 0.54376554960764323 -0.12140815262648433 -0.36542400521250135 -0.22032300897864715 -0.10536020442511386 -0.057163856973295124 -0.056460776171395041 -0.12585332355689005 -0.44022821915587818 -0.090354494110168854 0.011069107470715206 0.0014782536023517055 0.057729412482242164 0.046767980151997991 -0.22705183250415462 -0.22155239657445983 -0.10829610110127068 0.14161480733744611 0.73824693477631209 0.81109120254529765 0.38162893186706648 -0.19020858951831154 -0.054314999586230213 0.068488776887255839 0.050334062558461866 -0.24598893354981932 -0.22090662263259078 0.16111084143356227 0.025056857245479534 -0.039378716635484728 -8.1768731492320567e-05 0.00079303905478714427 0.04893827327593353 -0.054685809876497841 -0.24822939442123532 -0.4156969400589437 -0.36060656942723029 0.19372030981903407 0.82031927812748928 0.71130731571024997 0.22920262107682149 -0.23303999572489889 0.055052771048817832 0.31320530400103985 0.38561969100877413 -0.19706716302488586 -0.1087732655739202 0.17692106902846513 0.13613834409182055 -0.13999747366237683 -0.012297060596002626 0.0034993035933372995 -0.032344912541181541 -0.27783894946173832 -0.20810740049686158 -0.27017983277528679 -0.45406189257439178 0.22959900180812087 0.71152335129358313 0.35455631354008849 0.34262633779105639 0.033351456592107621 -0.0037808697312440255 0.28178175635676578 0.091200351845372396 -0.25632110040419492 -0.15985447592183177 -0.030441318376660746 -0.065582726247264189 -0.20787235204092763 -0.014571022362617057 0.009168546386442978 -0.076553372622314514 -0.37532475094948908 -0.60439315046520858 -0.31030715383449819 -0.59395156106823899 -0.52888416713982189 0.58445774596542199 0.65976229114201423 0.53300012612657577 0.20740711669609352 0.21930567646690066 0.54644864209870569 0.063866456946461467 -0.32177839578129802 -0.059774876993882953 -0.1500867653182133 -0.0035395671590241406 -0.14272070179170065 -0.0016288413253940648 -0.005457943579808857 0.045498899522779454 -0.067983055316049507 -0.47220855658525068 -0.25560386656773904 -0.3883022119101826 -0.33807189997272075 0.18631659909920015 0.2345813870382335 0.85127068038236275 0.570496378099141 0.25493643294549073 0.40307723696223546 0.19916614704152502 -0.18275803156743892 0.069175304173079127 -0.14473654672114511 0.12949238108920036 -0.031095306139795206 -0.0095983262919046644 -0.037728588040928941 0.0055388384538660549 0.084711170823831422 -0.18647258327761018 -0.29249041506567841 -0.28004481260896402 -0.3886144322728472 -0.36946238931039493 0.042980896339321131 0.26316885034075521 0.36937706259173819 0.044142200936710646 -0.17666699345213249 -0.051292922383490314 -0.067229611421123284 -0.080575801715899786 -0.076422315613497493 0.3105667872830144 -0.023608473217770938 -0.029031898225768956 -0.014627436933465314 0.064093024679902771 -0.070403800672383901 -0.074232150125648058 -0.16650805940530558 -0.28088613001053436 -0.49347288785918725 -0.44357076536469675 -0.10229444265747169 -0.0053330836708521141 0.28093129546442874 -0.018254658414056546 -0.10668358865893644 -0.11226899615204183 0.12488783088330806 0.085073974801122512 -0.014002006189982749 0.041590314618693655 0.018037083935811698 -0.030335000135539095 -0.00641494716388398 0.10169117977169373 0.052812739004515982 0.046657926148843891 -0.062248457234598625 -0.12325206382732831 -0.33670740832111562 -0.35785622496453584 -0.12323269664365172 0.36750133916541461 0.46972735186927539 -0.15370165141264622 -0.28712142508755656 0.11518839852505049 0.056009767566814583 0.10770239915437582 -0.0080480628495422715 -0.16863448555129235 -0.098787160789336012 -0.045152114248233052 -0.00075208326572647366 0.052054300717534009 0.054898477909893689 0.2315822088660224 0.093972532175048876 -0.097314893346582346 -0.1112225207617248 -0.31205662180077764 -0.25006715536799334 0.22218204146897227 0.25565404980236428 -0.019196459441893306 0.19172691315922646 0.25594948377929305 -0.33862067789528588 -0.17091919703773681 0.07342048294763362 -0.011875373698965559 -0.088960644807898198 -0.047533231860499035 -0.00051447267435177828 0.017641811056777337 0.061616111700213874 0.33821285145224544 0.10562866632775671 -0.060584587629968302 -0.11250592786216304 -0.24956861529360705 0.0068550087994633697 0.15227189559086982 -0.095207483839492429 -0.09254543480104159 -0.19961218663853439 -0.24193475205594428 -0.42303321973773717 -0.26679688241306537 -0.0042143090435084471 -0.0026175994081055419 -0.010311718482497735 0.00049189598021952459 0.00023560663656894818 -0.0044776392311366977 0.0070479370710945883 0.15348754797038192 0.1592982078272985 0.04917399508998526 0.16897161675798716 0.082707745943301714 0.099268619949024736 -0.035820644147345232 -0.11587952558893176 -0.10857700955381815 -0.18960242389864201 -0.056192535065860916 0.085123111022954362 0.157984058143399 0.028750093595058486 -0.017464546386627124 0.01575661020561173 0.0086818687982503709 0.00038046886515890477 -0.0036135447980844373 -0.018994155734069214 -0.033176309210635198 0.18549609680501419 0.3686836110337548 0.38792802170124585 0.16211485055300645 0.11916154664011325 -0.027142374480405396 -0.03840155746477894 -0.24298686294009711 -0.2228636226013633 -0.083098112746550226 0.067331737242696171 0.11582050203929112 0.03794652559283581 0.0051096086795498928 0.0060659128046571748 0.00019020537002273959 -1.4542193846602733e-05 0.00022382345608691785 -7.3946646921044132e-05 -0.0073050374657981088 0.061303830720213073 0.16279127392307913 0.14634737015541402 0.047190703270227535 0.0057261810794751386 0.011764580231155303 -0.026568706365892213 -0.20852236554873405 -0.13006218132944128 -0.091443706028772623 -0.041340132953673184 -0.0089980029122614172 -0.0067561785156585166 -0.0019801480975801316 -0.00031496115810745507 -9.7309389310950217e-05 1.0979263592228243e-08 -5.3042254695275947e-06 -6.2698198494202264e-05 0.00062714629567222561 0.010602331632830184 0.0068545793297926216 0.015372953427356841 0.00098155740531024054 0.0027103044700451141 0.00019248077445701778 -0.024118534492453041 -0.03936460985988486 -0.021104546435806816 0.0052517468370915686 -0.0042037140132885403 -0.002013809015403737 -0.0036680390542084946 -0.0009161597825259357 0.00010696834619319149 -1.1446978290837697e-08
